{"w1": [[-0.09097997692078982, 0.1539544380970295, 0.06495625860409886, -0.004799490811650454, 0.16578875107144464, -0.010551386367259321, 0.008371873707119446, 0.08790951254254288, 0.029129049400626484, 0.24234835298854746, 0.2334858723346017, -0.04135728186093194, -0.05506101537847037, -0.11665087139175981, 0.005045405472332056, 0.021228381664647453, 0.3103278820330602, 0.1227703071695482, -0.0161379686255764, -0.14162992653115777, 0.12144081678480087, 0.024470360778519197, 0.23176180716320574, 0.03294062909656892, -0.09360386702001872, 0.15077360187674377, -0.2164531533182014, 0.08394123988091826, -0.11882896747708162, -0.09468008838224985, -0.042589946244326465, -0.023997581654576203], [0.12426241104702496, 0.3122781897771549, -0.11954260987923385, -0.09339366087875933, 0.3423466880777295, -0.07197901717177389, 0.2625222830689092, -0.4870110053251422, -0.1559854311775471, -0.3041837373655072, 0.005296125286010573, -0.061962096867404996, -0.10346063039252054, 0.33390273735086157, -0.18796081292672778, -0.04253980423845041, 0.1948004782191714, 0.5427441905178109, 0.06255993674053888, 0.20674684342866534, 0.26809210500762576, -0.0738443235769885, 0.5729548160405075, -0.17377266604493402, 0.14461903544129412, 0.30950767428820314, -0.5194503969952381, -0.06331577736092436, 0.07858425451150981, 0.04767745012985433, 0.49668575991020464, 0.043643007141955195], [0.018568159698350326, 0.25725251336923444, -0.14027499983881483, 0.08969739043849272, 0.5549057550703808, -0.07266528980733689, 0.1996255251538654, -0.7188400600437959, -0.08665524760096642, 0.0583103290622913, -0.08627362232122472, 0.07731194569668011, 0.045226607554487284, 0.12094661794959766, -0.09453738031993392, 0.08935138665809651, 0.0008187657460841025, 0.5109507502583899, -0.019624251552045027, 0.06681270938043517, 0.18621028698011438, -0.08490817593624161, 0.3684061330195625, 0.055607665629528215, -0.011816749266288324, 0.24701554453512758, -0.7745789919805359, -0.22224864711873368, -0.07355395692622879, -0.15015149441726783, 0.3384041343982493, -0.053486537177809344], [-0.15565648739308202, -0.02827812540884305, -0.03061364149105566, -0.13892241453726079, -0.12480905199940752, 0.11670221029144708, -0.18394739089963408, -0.11222521267247859, -0.039688015328716415, -0.20244371797820668, 0.003926445196196527, -0.1230081059820923, -0.19778943117013967, -0.17250673869058383, -0.02002375275005026, -0.035830106370712766, 0.020197543369225263, -0.15002212293842565, -0.023736389259629866, -0.27191342807956814, -0.15350071520430844, 0.02374945954909411, -0.09129028725837646, -0.07397187746455434, -0.041637748409379595, 0.009537097764623694, -0.2279553267157203, -0.01024890797921135, -0.05554958635575968, 0.03839944403021778, -0.29025286956832663, -0.11684879561285794], [-0.08574408028224567, -0.04415290560565813, -0.104029650117093, -0.12111624648454629, -0.04442423634769433, -0.0380796670950519, -0.30462998180190876, -0.10143150117386779, 0.07911018682005178, -0.11683610844287497, 0.10534212127282992, 0.1161640742556175, -0.12307800927058936, -0.20041020727641737, 0.18062587426205634, 0.06351785827504051, 0.0050958623998978315, 0.006608972336241991, -0.08824478423521424, -0.15419077079987556, 0.07640814367510793, -0.16630105681973, 0.04750367425696719, -0.15742375564494868, -0.11229974696779901, -0.05088875487231152, -0.27017874600512737, -0.14439808929902298, -0.16985724783619266, -0.08316228639975742, -0.2133208259967813, -0.06203812705487042], [-0.17262686000183922, -0.026161918381051676, 0.036332196174657196, -0.11370850021398674, 0.3084172796694705, 1.1434351764444327e-05, 0.28777195760518104, -0.226183551550798, -0.07209148825035988, 0.10382937941024938, -0.02637566817578768, -0.043675630680627686, 0.20867470487010878, 0.39738963324858045, -0.02261786100125713, -0.08230907679852116, -0.022138111538795274, 0.21036019785055055, -0.0872554454368317, 0.5245622118678713, 0.036790312602369424, -0.09194071422842928, 0.5896792827243482, -0.09959404982816125, -0.029816617073956848, -0.30211621053638216, -0.13902419630665042, 0.0020070103141901067, 0.09354631710717465, -0.07370344384034268, 0.5141266342936369, -0.11500014312759506], [0.07011747306692574, 0.014059774612521388, -0.02910140904375182, -0.1468795664358313, 0.3878860443886991, -0.12884633119265163, 0.2912693133372221, 1.7618992493805674, 0.1545938133276667, 0.27817584241615206, -0.08741054797221805, -0.030277978772398247, 1.2296018202899446, 2.7817793920133633, -0.12860868559360852, -0.15325262164641518, -0.12219530549771344, 0.21775462749650468, -0.09496779375764575, 2.7920866841495413, 0.20133328830685412, 0.03614142614256728, 0.7437923598161201, -0.0866623586025288, -0.10449468006419799, -0.5227192192855262, 1.5394080693881758, -0.07098511283592228, -0.08760073400753915, 0.07020009479906655, 0.22770904034953374, -0.06344095736159021]], "b1": [[-0.11144395551511088, 0.32333825418198037, -0.0017524122617603648, -0.0007160234461023296, 0.35743529951744885, -0.021881161289196944, 0.2384655690859516, 0.4169011172433864, -0.11828532862596959, -0.3379519289859582, -0.0427485389821367, -0.03951754638442049, -0.06500175363658738, 0.9358559026090222, 0.017039518551069874, 0.03470697029981442, 0.30883690167583644, 0.4347330210332583, -0.0016610642869969465, 0.8516496572865199, 0.33893046961404016, -0.006191037535816255, 0.5424307750365448, -9.741686303091766e-05, 0.012150111143165753, 0.09954957665123729, 0.23032579060904126, -6.276619323169291e-06, 0.025870557888045362, -0.06785510648087625, 0.3605743921815962, -0.002462445866330547]], "w2": [[-0.10946034492610607, 0.11784346104708872, 0.024022179226238463, 0.09696187541705129, -0.10901363889448085, 0.0642377528968076, 0.058400179032819695, -0.1277904991633969, -0.033627135471504456, 0.20944251982660878, -0.01815751831958507, -0.0022202307968762556, 0.033273855708899513, -0.08555135012238446, 0.13879646586714697, -0.19586287809623523, 0.09284432099654727, 0.003819859003176663, 0.05149084606248373, 0.030492326580250168, 0.16612644178861138, 0.02656633045347387, 0.1604115640118746, 0.19804975617351936, 0.07973338517804467, 0.0016151222518327039, 0.09176882720226177, -0.025276800287856557, 0.1117433185253475, -0.10006422729064755, 0.011010804123498754, 0.1017038705875676], [-0.08380262230080601, 0.33171725863994245, 0.003340606893424778, 0.1416985906683069, 0.18679864807649935, 0.18481119298737872, 0.16971409886462313, -0.015765579385276465, -0.07095368055284008, 0.26308067569156673, 0.19759816418470005, -0.04002733646665431, -0.07581429138653718, -0.032300445291893735, -0.39888032047436656, 0.313350574644231, 0.13527917671014691, 0.5361315226541163, 0.10272684196061665, -0.07432052542317089, 0.011386218183554493, -0.9595818839818134, -0.07915731314916276, 0.09792004871287911, 0.13017346353004478, -0.044800698581614506, -1.319346531458969, -0.08737926684328291, -0.9985401078770196, -0.10536638548514393, -0.045747069748794826, 0.2206108550498981], [0.019485870960542523, 0.045204817512010095, 0.11510396798641545, -0.09436675419496085, 0.09808878772525582, -0.021023099586007725, -0.04309957352484063, 0.012096080449030534, -0.022592811649906785, -0.060630766429835725, 0.06693554657073382, 0.1802281969452479, 0.1084450822647279, 0.20434235931008768, 0.12584142963692224, -0.13559142479549663, -0.027690346317420723, 0.01477451577593125, 0.016640734521840627, 0.2183742534003501, -0.10523552398112129, 0.1722676919697912, -0.20129101953175632, 0.06028323255387402, 0.1271570235988823, 0.01352941411958227, 0.023809760984280618, -0.1284563611562141, 0.14275656419472704, 0.001209452639642783, -0.05353802535121013, -0.2313883953865979], [-0.03193338147376778, 0.025252131246931018, 0.13451177977586476, -0.062030388376176436, -0.008019340086568882, 0.0010968962625735486, -0.18759368866610618, -0.0656715485699386, -0.07891953624794239, -0.27699229817969034, -0.09919765067648718, 0.025837674935148068, -0.023494998754717625, 0.06544245781574812, -0.013313413358157722, -0.04831030613652835, -0.09450265619174125, 0.0020018856833595136, -0.16182545260607353, -0.030107033252318977, -0.15613303048369231, 0.14024251215751343, 0.023938741379697048, 0.16837609500956083, 0.11917091808319946, -0.1340717682477122, 0.2376220203644287, -0.05299719447983857, 0.08290126673274305, -0.0027542049364697513, 0.003424762547803629, -0.20844669568708818], [-0.11190829308650284, 0.23564303575289666, 0.19310006160360277, 0.28152314744783796, 0.06356359458158092, 0.04185242173117268, -0.04742931779917691, -0.028140957719122745, 0.08829616211749367, 0.22094629227506582, 0.25781788533780364, -0.024344922711685937, 0.14758130678338238, -0.0837163161730608, -0.18841871651585065, 0.37039825074453187, -0.13367733779964147, 0.11442558675167874, 0.1509292497615535, 0.04123556228229713, -0.09354438932599864, -0.4384486667651868, 0.1953844392695814, 0.28990424572214485, 0.3137832610882673, -0.038927349714254024, -0.7864275180798576, -0.05526452616799258, -0.6023670790757181, 0.08378547611114366, -0.16291668994022368, 0.0634046048912823], [-0.05130163554202639, -0.06314039770392918, -0.09915529263117558, -0.12238700859548207, 0.13754645375020103, -0.04756819070934052, -0.014408944592190087, -0.04713936312968452, -0.04542216443168649, 0.033428173125318206, 0.08150982291714429, -0.1075567917973208, -0.07900125621020783, 0.08470184099666289, 0.0256064120215621, -0.029585755736298326, 0.18577327416191725, 0.0405493075573969, -0.1702780944558592, 0.08236758141349079, -0.09198117327823989, 0.17111183979291514, 0.1526639384150076, -0.060055958761575684, -0.1149847281272267, 0.04630081859494236, 0.13353096292232908, -0.177270123905072, -0.12072293985522924, -0.013245970056772048, -0.17126802081981443, 0.005741821311172654], [-0.05541772160158341, -0.03141016942773076, -0.12503372021997722, 0.1410622214677228, 0.15818019518253823, 0.23785680549440708, 0.030061569845655237, -0.021947997018783586, 0.001778976518900963, 0.15033876480236694, 0.09898944900176285, 0.006664611743672487, 0.13791665130235944, -0.07265954257003875, -0.2181053090439267, 0.15386000707263076, 0.074366187616634, 0.11118767255600558, -0.03690889391556898, 0.11405292704668267, -0.07713516399918172, -0.7589629203345264, 0.130756593881357, 0.29035382968913864, 0.1421453024224294, 0.2046555366812272, -1.1440876629570993, 0.12529184031545873, -0.9096719785428481, 0.06314121855344328, 0.17208887305638684, 0.11430836563100631], [-0.012371940465704574, 0.75221024197266, 0.12077113155674571, 0.8011752720448905, 0.6451988380360439, 0.4268459807012229, 0.01037869092805901, -0.0032766267786959184, 0.0332071110827135, 0.7809405719442478, 0.5408128199136328, -0.08773345838132694, 0.07628038535714586, 0.023262520189472783, -0.0488591511033274, 0.43116815412466886, -0.11236412628599424, 0.622461294692817, -0.035524052393055, 0.09466447828962483, -0.014882850883752942, 0.740360185229995, -0.16013774298719183, 0.5704052930189609, 0.5456079803430552, -0.07672983265105084, 0.5915549002327053, -0.03875863125370563, 0.5996903339207088, 0.1320667781493758, 0.10685686594303055, 0.5030609353421999], [0.08229744945201978, -0.15607609552686583, 0.04661825674466041, 0.1637170427750355, -0.04313316127246822, -0.07195904298000907, 0.08198977974206569, -0.06369955433705693, 0.07188388888264623, 0.13360632376270426, 0.028997064316830898, 0.04662398042721087, -0.010523533336121993, 0.00899691264230381, 0.0803470233616904, 0.13661032560045458, 0.04554512677053884, -0.05143197560127936, -0.12419965546885506, 0.055358580872664674, 0.09174742000078806, 7.170937173762621e-05, -0.051923510160934126, -0.04164628454410449, 0.04882507092480662, 0.03139470054139815, 0.051486161451023665, 0.11969263218071863, 0.19495145438204609, 0.018074581119106946, 0.01182546321939757, -0.07371189516915662], [0.08541203603424709, -0.07208038766636904, 0.18476833234591689, 0.15341300662279328, 0.056438571279152694, 0.02818173557563674, 0.08214865030333042, 0.08973600767185773, 0.12262951687021163, 0.060978211299209086, 0.03212731718122148, -0.06265806722796365, 0.07853033506595218, -0.04869132682658536, 0.29367873713129306, -0.020781715716327313, -0.04031470789031305, 0.06380677366705687, -0.12346451335316642, 0.020638613850465413, -0.00857675126965003, 0.13085410129432293, -0.013689256978802961, 0.007001551464468319, 0.059061876904693784, 0.03908776452374552, 0.2245193117463894, -0.044957662216524634, 0.19095372264789381, 0.04699820695831705, 0.14764676031403545, -0.0020746197579250177], [0.20784158598789043, 0.020363833642954507, 0.3174052296310162, 0.009315972275721862, -0.04507445473486155, 0.09206677477103462, 0.10893891076756607, -0.03526068515888194, -0.12267685753706023, -0.04442990381147289, -0.019871734900936702, 0.051772136151572785, 0.15734415887934564, -0.23919567382157797, 0.19528387537867625, 0.029846099787118836, 0.16434223052624597, -0.019024722583449578, -0.1937576405085031, 0.025501283355508577, 0.03240899275429612, 0.03765219182818355, -0.11809082648475797, 0.01636646482966059, 0.0832863465138919, -0.09432969848852628, -0.07977997057508585, -0.03695803125546238, -0.02424399879944521, -0.012323905733275848, 0.12303390949314136, 0.12964691593449282], [0.03311971213211716, -0.02115851347977924, -0.035231464375940026, -0.07579128933236057, 0.07468934546473026, 0.056610737814206995, -0.059007420193771046, -0.060701819066683045, -0.11389910363768398, 0.05899860026510129, 0.07421403740453215, 0.023745620856364044, 0.03200906190776699, -0.0485749088451786, -0.019647158584792306, 0.22890245459505462, -0.11355500727415889, -0.07254326276775662, -0.04046429791512042, 0.02762954057156988, 0.07380863244707837, -0.009126397280646016, -0.06613786284036093, -0.08374776093538798, -0.0504681397071767, 0.047620134505713195, 0.18708501524399765, -0.10061752641064094, -0.03435398295831572, -0.0038214203175217652, 0.17179551491575393, -0.05104017388043827], [0.034097396864901035, 0.4670656646819165, -0.11656320359475873, 0.35914035611003126, 0.25337827236213134, 0.2571065549103188, -0.10710369702999846, -0.017442704628504013, -0.06405553470795898, 0.1650926653177199, 0.27059043172813996, 0.11103306681935465, 0.009769660944966684, 0.02849974515074137, 0.055271769771008256, 0.3035760376984817, -0.03657681050326917, 0.18565376602974312, 0.050865187661220536, 0.010897210556576761, 0.2443304208047347, -0.5694792268421933, -0.04084052168320276, 0.5333524441957586, 0.34327007800262793, -0.060648508430422396, -0.8954107606284631, -0.29633669641190447, -0.4305834880924646, 0.006646794577581071, 0.004409441555425257, 0.2994115619972809], [-0.054966225329261105, 1.2168749426252152, -0.16934719028118553, 1.001637517967126, 0.8944132527772982, 0.49365126563747713, -0.07251603191037041, -0.15516004802894948, -0.08753142672707147, 1.0063139286090035, 0.9205069244330397, -0.018629024634185372, 0.22512492155029515, -0.09948156758240131, 0.2519030199283762, 0.9795751771063078, -0.14330962120791862, 1.2164277491334419, -0.038894852320328244, -0.05788187866642616, 0.04386189589345917, 1.6673236636859794, 0.060359463034688324, 1.0164719662492707, 0.9074717619860816, -0.06650311518886214, 1.4227020197037552, 0.03208500340070575, 1.6464722558461962, -0.12416225638685081, -0.03068278823902003, 0.967679499884296], [0.14851135128114581, 0.07492622828646538, -0.07392985020734301, -0.019993240744761845, 0.10473176561111634, 0.047276291073585594, 0.11975149915725083, -0.01745837147575517, -0.004887751224022804, -0.23363578354633724, -0.11989810923315566, 0.11963934505976571, -0.04562671056561387, -0.01708564616440342, -0.033645081262535396, -0.13735336871032028, 0.015144393293175205, 0.04742084205007749, 0.14459656790074593, -0.10288257054812629, 0.10650627165304266, -0.04776833055836184, 0.008056402119508548, -0.144258738438884, -0.01740661923359382, 0.15898118036022466, -0.0964663142363439, -0.033529945932428036, 0.11667666925356501, -0.009847575857108888, 0.09612808037362455, -0.08557064213980912], [-0.004349865939863293, 0.049024269824262424, 0.1961375120248326, -0.010257082104946351, 0.14632587319103985, 0.2012133175997166, 0.02538025878159321, -0.17079555731432935, -0.014931737735776265, -0.2796727081025069, 0.016602442258088358, -0.024558448136259698, 0.0005588181543680322, -0.042440187028895855, -0.13110357300951644, 0.013897823322357191, -0.07457916406893467, 0.03788527466651221, -0.08219623110766786, -0.0948864785960936, -0.02560065632175795, 0.24287627540384474, -0.12907713072338053, 0.08552618912971456, -0.12388352376724447, 0.06618167114102241, -0.10175163768651052, 0.070484125500635, 0.0020110219278434522, 0.11391177917941074, 0.03057050150433758, 0.09298148568827486], [0.03325038764449848, 0.3555770638244174, 0.0618787924417999, 0.16705829361508354, 0.23399992215313942, 0.1800500305907262, -0.03926121683485137, 0.13204986247061717, -0.17712241837746215, 0.11791555851688883, 0.13141710336857837, -0.13457407661539764, -0.12336911024285889, 0.012476498444109965, -0.45117069884754163, 0.24342746440930885, -0.06531631883858993, 0.08574935130452883, 0.13136878093271667, -0.15727174440777497, 0.06867618269594403, -1.1833749981422734, -0.07667904981536681, 0.19533712687006735, 0.02668153976755564, 0.020113577686881615, -1.1644330716837041, 0.11716801157836314, -1.0756139778390765, -0.07462679152626155, 0.03376024555232686, 0.3214472660011392], [0.01627488613440816, 0.33950029370384, 0.07625785622651224, 0.29695426632781013, 0.34981399530483787, 0.04584991323842762, 0.08657020970670934, -0.06637529693120597, 0.054338986748293225, 0.2768163161592485, 0.20934508280336575, 0.08984148624734069, -0.08564132333902187, -0.009298610942786606, -0.3590240347092201, 0.23098893932400683, 0.019210366059827077, 0.4335885405241333, -0.017180559054010756, -0.22028802646054957, 0.018165906623889526, -0.6567435046231612, -0.01924563218453101, 0.37665352651025724, 0.2613587094967221, -0.23833599438000633, -0.8711245476691619, -0.050440493438666904, -0.47556873957857, 0.022564174925753442, -0.19564348250752517, 0.438666531494782], [-0.022628781798876414, 0.061102955834574035, 0.07041749562071006, -0.12686712822043875, -0.11469939397848973, -0.0337667777395132, 0.1517665104671461, -0.06599799023471581, -0.13632858869117254, 0.0162138138700494, -0.03526195191108254, -0.12272084782689598, 0.13903789693583227, -0.07370998303889248, 0.17774137873974355, 0.057687058561528184, -0.1147003061824884, 0.14690812316162655, 0.12800813882803896, 0.10900667815804485, 0.06844422682438288, -0.05781692328102389, 0.15034263406887272, 0.05706910320537346, -0.034017363942560074, -0.16887914962499664, 0.13419579280541546, 0.047384281800822124, 0.09369255252478384, -0.02691162813370768, 0.02711200558793156, 0.09483779074305212], [-0.01701352021485825, 0.9226456336144392, 0.02088026429692086, 0.9537177882065931, 1.0289106784030202, 0.5038142220835278, 0.03643338778622861, -0.06272016852868298, -0.004854801759510472, 0.8123339512291209, 0.6729285536744536, 0.01035581593063087, 0.23971331485692207, -0.1474736057195801, 0.39588679257827686, 1.0164941207891078, -0.13280948182009586, 0.9854205227470442, -0.13672174775292467, 0.08228029500945269, -0.12158225241368491, 1.6757479896951661, -0.07700452240794695, 0.9909137455166306, 1.1124163810989334, -0.046376203163200576, 1.3182022591569165, -0.024064619796044857, 1.5272317707030951, -0.020806500574673616, -0.006635421157983779, 1.0622941222274125], [0.04616411598987247, 0.14809570558815152, 0.05839161009970696, 0.2880569903248313, 0.2153401337542419, 0.13321240771880136, -0.2286235862169787, 0.0655524305357251, -0.10579745932608971, 0.20625112478703486, 0.17503075424907463, -0.10172384495496462, 0.03174322022463069, 0.1260434983339433, -0.41045443822166716, 0.36538260842986175, 0.07942670014311437, 0.35890354916495804, -0.07950658800110619, -0.0939738841096528, -0.03642653794735185, -0.7257647412499318, 0.05384756646251056, 0.32983865159502074, 0.232165468548157, -0.06207560008716244, -1.2933134001068813, 0.16789088784865905, -1.0113265591409577, 0.092998167947307, -0.03530454058402434, 0.44706331311517505], [-0.10038762499113686, -0.027159365086971504, 0.1613090414141285, 0.032340983222161335, -0.05750511472586606, -0.04408360732020911, 0.16950307492520172, 0.09979308249871909, 0.23058797891122118, -0.12677117510747887, 0.013474378079501399, -0.06415324938895892, 0.06103670699298864, -0.08920770723757182, -0.02920788685823356, -0.13770520910304304, 0.07863178659709323, 0.02242275042888088, -0.12454658351292519, -0.07426289958518191, 0.17649288206540106, -0.02378471336523087, 0.06004142316142972, -0.023027647277878753, -0.1939539205757713, 0.1426159160487506, 0.003912388826919655, -0.0018808245644601736, 0.06220449102352823, 0.032138753758853895, -0.10381330202933363, -0.023477528275090358], [-0.0887535688345208, 0.36453225934617967, -0.06406593859708609, 0.4011965066974143, 0.5148749354544391, 0.13514971250036925, -0.12478943768461348, 0.014877892609120208, 0.024833682545170703, 0.46504622760043185, 0.2505848759114155, 0.22298124267111602, 0.18877025513768136, -0.08954183736128185, -0.37995900463782545, 0.13437407573308863, 0.14257215541816143, 0.5264665791803997, -0.04378407672618021, -0.11471621302565684, 0.05661529613171121, -0.29603629480164684, 0.1486332926149608, 0.4961218335553873, 0.3495903354313151, -0.1587504335598807, -0.542257188922842, -0.16244968830118242, -0.06983386042331981, 0.022128124181398815, 0.016554439349008777, 0.3486992751921839], [0.03725451930060323, -0.03080183976014366, -0.08781767719342254, -0.020452211115556222, -0.11560106989156012, 0.1485112648560609, 0.07386575733773293, -0.10583876085353679, 0.0415609361249026, -0.07677107959683223, -0.0328208969178482, -0.12897373531611128, -0.2002863070682751, -0.0988123064942299, 0.13084099305669458, 0.07005355211779964, -0.09783283907067504, 0.02584652213036705, -0.12867819203567496, -0.13205749825886964, 0.02310589016409414, 0.21177093073216768, -0.08112478307466284, 0.039815447027167404, 0.11567389592558709, -0.059635226295136776, -0.1383526858165779, 0.01379550314013787, 0.057039929062510736, -0.22838272062042397, -0.01438314745012111, 0.19159626122396992], [0.12863001120092366, 0.08960517053120219, -0.04741863778347582, 0.145333005207379, -0.1113776071606109, 0.021539808892596837, 0.07048185228017176, 0.11763345658032034, 0.09421741297300328, -0.03752069968160736, 0.15556837325210104, 0.021410476187795992, 0.05869102751031344, -0.010577269219851472, 0.1272906699051245, -0.022971326772045317, 0.07702612321428694, 0.1327417201209379, 0.06665248681348361, 0.22631541141009565, 0.11311619735555908, -0.037701937741287404, -0.11807809820017699, -0.010044244911803987, 0.0040601169180827556, -0.02298925200609658, -0.14490357126466571, 0.1540844838301856, 0.04486766564253158, 0.010677625528657773, -0.15242045846778668, 0.056792665858761984], [-0.16836416762934628, 0.38363169536384106, 0.07681624961508936, 0.23381293295850225, 0.15022138216225708, 0.004947462867055856, -0.061040546265662875, 0.10140823251079005, 0.07849950325940629, 0.3062301170843097, 0.23221870285209714, 0.061013867871324595, 0.01978004654424421, -0.016778076315263034, -0.4226253709232373, 0.11231712771808826, 0.001276453424588294, 0.173379491240991, -0.014028807940075516, -0.24866085420530226, -0.09434916646094087, -0.8666897859174266, 0.05386267996288753, 0.17155363668456575, 0.12741671328596837, 0.28494427092246366, -0.6704565403792832, 0.028479848282880735, -0.7928520700601587, -0.03167195666403087, -0.25828818412933013, 0.426229420634309], [0.17696851797038665, 0.6605136143044021, 0.021617226607386745, 0.41097542725563035, 0.36964755718793535, 0.3620521316793529, 0.15938441816212418, -0.023317191828221298, 0.0743037203731424, 0.53732056451859, 0.5731468693440075, -0.17356274024323873, 0.06128111418792661, 0.04508251510088301, -0.07409027562652844, 0.6754341884878672, 0.15261510347372997, 0.8285049338593345, 0.06515579584472564, 0.1151814784286088, 0.10375989038718582, 0.6895426765824512, -0.13241855955725224, 0.6098768743443418, 0.6725147855966648, 0.018167870874868527, 0.2390792937108674, 0.07735745731121912, 0.5535895909452561, -0.1792730296683493, 0.13616358705892626, 0.7037887790851711], [0.12828721556235198, 0.07463594447311432, -0.1027073125646093, -0.14524784443920868, 0.021276179962148405, 0.12180545362020512, -0.006190553950206789, -0.05239503798814818, -0.03954615530936706, 0.010354098564679696, -0.13790402262088983, 0.06678770096783371, -0.15296780494344916, -0.02826218451429286, -0.006045459118035818, 0.021974068528780942, 0.02924059338029636, 0.12702735976628546, -0.06278940604619972, 0.0816092631705278, 0.10443458533034156, 0.012192615971767408, 0.05496652429547842, -0.09362886577697012, -0.10150753298231192, 0.08433307231131727, 0.08158804745109377, -0.01585247542266487, -0.0626480597184298, -0.009955378072160756, -0.19537048499087173, -0.11136549268622628], [-0.0768202792753653, -0.05438030083845111, -0.049660051358792444, 0.021193975621356685, 0.027533085558665984, -0.2414068147554909, 0.09853201633648236, -0.06397953614450724, 0.030387264167097167, 0.01998809676438995, -0.2367719588459456, 0.07956727411191633, 0.07003662964715027, 0.1192695453866805, 0.07987817421483098, -0.04666197472082425, -0.04415627173812278, 0.03139087110256107, 0.17083834719206795, -0.06614817740699168, -0.025723173127461536, 0.1064620508292051, 0.06856966068803168, -0.05208754450047344, 0.010799528644684732, -0.10336723893379188, -0.04021222726817799, 0.08908948499259348, -0.08367100114858571, 0.07066538756119298, -0.23612452183156105, -0.0025413905957788765], [0.17666338716078603, -0.07316645141076523, 0.04558261783461044, 0.02312052620762118, -0.27456202340595387, -0.0836525966732462, -0.02881773801278656, 0.03712780697422504, 0.02654737035971528, -0.008746409675737293, 0.019671191811511425, 0.050298227700734895, 0.12591334213849173, 0.21386354612799435, 0.06538670157772583, 0.05423738553382586, -0.05216098061387082, -0.01859569260141293, 0.16208786653822324, 0.08640711367694115, 0.05671862321843744, -0.04263167391186382, -0.10416239513308459, -0.08047246543715532, -0.24604285472830822, -0.16631712243311178, 0.09207171592893337, 0.0027329039944383087, 0.08727475559895054, -0.09092004758277206, -0.10531440361408471, -0.15708802781976636], [0.14321619974743885, 0.30294844091630424, -0.03455743473976624, 0.41992746453660995, 0.24646642043111158, -0.04657736580429732, 0.08740541210704539, 0.17463208589373191, -0.1876949151877115, 0.47248970814976526, 0.21762481069994088, 0.024499094563430388, -0.05299034412595823, 0.021698772784860085, -0.39607455305861733, 0.19196510811683692, 0.026895205002076594, 0.17352632216045863, -0.056334450681965374, -0.13039669604557733, -0.048828902428423526, -0.5012928930576688, 0.030840091385637737, 0.2583714069344198, 0.15749601580268663, 0.008563359218130472, -0.9153484839166527, -0.16912590776335418, -0.7232993333844839, -0.016656928401916734, -0.03363928990506777, 0.26197688055598883], [-0.04729989951870045, 0.010698957587360567, 0.03961074500843022, 0.06511661303402816, -0.14559330237881982, -0.0026602433153594673, -0.034453060248408024, -0.11843757707864931, -0.10828040436803602, 0.04836496651476898, 0.07551199572965424, 0.07486936963979123, -0.039086261475825536, 0.11651533434642687, 0.12475711180042173, -0.11572153382596008, -0.09512463467057265, -0.034203966392314517, 0.032209350158664156, 0.021423976719132584, 0.18049789517352954, -0.021306645653542074, 0.08823823642491514, 0.12258577203987091, -0.005456199392054725, -0.07576198785642523, -0.14764063131063235, -0.07775589590451712, -0.013564117728417736, -0.026446602723269305, 0.02542052205385062, 0.06941444354542202]], "b2": [[-0.04963489064964296, 0.5808902396783712, 0.030432724801664975, 0.37535678951436663, 0.42951476338700256, 0.16362809128864905, -0.061513345854354196, 0.09433575577712941, -0.04261037895353261, 0.4538748964461013, 0.3578610915430055, 0.007594572212699617, -0.03922574696137534, 0.0, -0.39716346605636554, 0.3155152483900618, -0.05588056068612982, 0.5829328338057276, -0.033858121064140156, -0.08205338954852834, -0.09777458874569699, -0.6881129825318105, -0.004993688419701677, 0.5038989326593103, 0.32483690310590857, 0.00588353147107532, -1.1215713260673474, -0.005165921313402651, -0.7999707940546981, 0.006797178297485837, -0.14826055089598897, 0.40427918209399116]], "w3": [[0.19971349887610737, -0.2369995165848474], [-0.11412755855912445, -0.31622430224564224], [-0.0440653650335669, -0.06279424360660733], [-0.1335318778796082, 0.02321861043289169], [-0.10730316875348582, -0.11924382361670528], [-0.26082548060163563, -0.10237768653571633], [0.1523841796482153, -0.09408901161562942], [-0.11290162422198939, -0.1506300912581103], [-0.144179535184931, 0.04255353567696322], [-0.09279002231736189, -0.1999446701331365], [-0.28976581981629745, -0.11358224533355846], [0.080891495984295, 0.2379511094741419], [-0.3106834800685354, -0.01749027373018266], [0.08185961833675465, 0.034877489236757236], [1.0282694894625748, 0.3953573070335938], [-0.08345555337696535, -0.04442357692849059], [0.042803815219242036, 0.13052228417201625], [-0.09879355937281424, -0.2879746214020752], [0.18335349553968205, -0.05634828826646523], [0.5942066457782095, 0.30125238892602024], [0.06450899707636935, 0.06821545390513574], [2.5980566871575697, 0.7107378724881562], [0.046649760346317015, 0.14262870702479294], [-0.12142959395120462, -0.10154340654852947], [-0.1835747492736043, 0.20458905007182962], [-0.1316468119786286, 0.10868107175677143], [2.0222076386181738, 0.381794832141048], [-0.055064009986272464, 0.08195057617670883], [2.5208410017841674, 0.5218217603759366], [-0.010076954032780458, -0.04592654671015003], [0.482835307403756, 0.04965710379417036], [-0.07080628181144683, -0.2785150818073028]], "b3": [[-0.28473596316695193, -0.20151954536257413]], "epsilon": 0.0996820918179746, "step_count": 57225, "episode_rewards": [-55.49206161990809, 793.9246490146458, 1002.0, 1002.0, 1002.0, 1002.0, 1002.0, 257.70364114579985, -230.48714264934623, 160.0493731565035, 1002.0, 1002.0, 1002.0, 1002.0, 1002.0, 1002.0, 1002.0, 1002.0, 1002.0, 1002.0, 1002.0, 694.2549555629794, 81.39081652815581, 26.670052070950792, 464.89831858195464, -458.8328176572325, -316.06429908159333, -232.7400067052938, 227.5827299564954, 519.3703394323925, 1002.0, 614.8971959450074, 616.4099728194702, 442.85540526219523, -165.75680843629803, 17.926561787964317, 1002.0, 1002.0, 890.2350213916699, 11.530734248218181, 1002.0, 1002.0, 1002.0, 604.6555832732665, 984.6879407917381, 1002.0, 1002.0, 1002.0, 1002.0, 1002.0, 696.2359030547464, 859.4696281043582, 1002.0, 1002.0, 1002.0, 1002.0, 1002.0, 1002.0, 1002.0, 1002.0, 1002.0, 1002.0, 1002.0, 1002.0, 1002.0, 1002.0, 1002.0, 1002.0, 1002.0, 1002.0, 1002.0, 1002.0, 902.6184702221135, -382.2309910695665, 833.6582079999738, 1002.0, 1002.0, 155.54798975655754, 775.5526013950248, 822.0478003776902, 650.5188295632053, 533.1864232174602, 478.40234080520827, 38.81465285727491, 1002.0, 1002.0, 765.0863027664186, 269.37247597486436, 1002.0, 329.1923905633012, -242.12830730889584, -296.42717515082416, 320.26955906664864, 1002.0, 1002.0, 1002.0, 548.7591888798148, 198.95063367038847, 1002.0, 1002.0, 1002.0, 350.59578463242696, 648.2682392403455, 723.8208125624512, 117.52942625103908, -201.74161486705026, -110.81044231828912, 555.4139271064212, -37.3071508656249, -33.65118786237455, -179.3382246101169, 526.7018165070835, -68.75748557709319, -95.78818210484144]}