{"w1": [[0.16645379762903492, 0.04780945890166961, 0.06173661304071558, 0.10860107718545199, -0.07121112218106022, 0.18380312832249626, -0.2434520469586994, 0.27225031772520963, 0.019826569800177295, 0.0029697834352137966, -0.22304465758573222, 0.07185368857507127, 0.26309227034878696, -0.006841657822033756, 0.1041955732435808, 0.041351727664393184, 0.10081551576253797, 0.039693963863252066, -0.0510814328744368, 0.17111729550806515, -0.06620315687143219, -0.04191653723646182, 0.083240608748053, -0.25954586845484745, 0.025640064174107885, -0.177439155517819, -0.06673951542832007, 0.1803228499161256, 0.130021177400824, -0.007787289540307029, 0.02205256448853801, -0.06587054465326812], [0.034851587152091495, 0.173711254355128, 0.07450154012975733, -0.2574721365896314, -0.12431710995817953, 0.5346551016803511, 0.07093006601121628, 0.0022280767146443292, 0.04345589585137603, -0.017381687541577238, 0.11865707456747825, -0.12933780131007114, 0.29658587083912846, 0.25534117286742425, -0.10699740396552306, -0.32598394590494617, 0.16382535878524054, 0.06368528823893495, 0.09442985121899063, 0.28073666594602054, 0.0759949238068066, -0.4006707324041285, 0.3534465632625177, 0.05070313826164562, -0.14699079221051473, -0.07564520117746813, -0.15083656318087613, -0.06146733586309159, 0.17961074378591796, 0.21709504433948193, -0.17143183420109875, 0.06381432891247577], [0.786259055277507, -0.03863252059001623, -0.05044587312179917, 0.08131880151978957, -0.26314174742128055, 1.6859551547014862, 0.5495066535135747, 0.447190535141093, -0.18851179117536027, 0.14503297321112088, 0.4963743429702988, 0.051144150778892915, 1.5569268434553425, 1.0882790563464042, 0.0843992957381832, -0.11889865607332122, 0.3657319101534441, -0.17752468823845186, -0.029972137873222233, 1.082457390512425, 0.6761585924907982, -0.7588446644998896, 1.2685971290142963, -0.06470316355220533, -0.08865755491792271, 0.14368950756170587, 0.04659603757710457, 0.030484580866564887, 0.38409455499583106, 0.30750891447479456, -1.075156118453247, -0.14976776619874232], [-0.7727551597871544, -0.292907229788638, 0.008205696296457926, -0.0924910040179947, 0.09142465848901128, -0.8367234321088027, -0.9164977726777457, -0.5261966599815469, -0.17371828330877465, 0.6986944900533107, -0.8404305705602182, -0.07031687803219017, -0.8385885546765208, -0.6250843800456873, 0.03751102019889783, -0.22419194214426383, -0.26717914481135596, -0.1649898644505682, -0.11015698746703151, -0.6673636133350885, -0.9350401698820285, -0.04971170988891173, -1.042771683910158, -0.0880199523023971, -0.029453086000731328, -0.15496767254578414, -0.013681362284166032, 0.07884366237606816, -0.7164450420277333, -0.1006999919822447, -0.03609531788443121, -0.03175583216628274], [-0.26582058341036235, -0.03252624065364228, 0.09632202070162113, -0.13378721640761115, -0.036275028534430646, -0.19830169051660823, -0.293582944079942, -0.186663383537809, -0.0733379124570346, 0.15977277043536844, -0.3639476868302943, -0.155173258971449, -0.3192040824199023, -0.2074427139713238, 0.023514777007082883, -0.09382723491989978, -0.17141673692068268, -0.10865254190373648, 0.09916042554711914, -0.20013679241697147, -0.12067188137537224, -0.14011490269319243, -0.14214330626374644, -0.19831292565960143, -0.0928250179444724, -0.04735775760153051, -0.06691308576040746, -0.23058359097134354, -0.24085656567534772, -0.04926819872686098, -0.2128188624953503, -0.156722691458614], [0.47152132365510196, 0.04841472390721674, -0.12536587035974361, -0.016413395414260668, -0.10664274121220212, 0.4963960278476882, 0.4419649825892575, 0.470951801859709, -0.0258316267107413, 0.10024187801709018, 0.42851752704410045, -0.03288948840377094, 0.8310536455606501, 0.7020415125799632, -0.18793263399037236, -0.10983948379186445, 0.41844673596829324, 0.09648171874896883, -0.05404774361710606, 0.3641682943959468, 0.711360200915567, -0.5921947591864987, 0.9060674515098956, 0.011925229847037198, 0.001037576639373468, 0.012254332076007155, -0.12453899469545511, -0.14074743661175748, 0.480086045221326, 0.1239527312488442, -0.6415726533964546, 0.008396716080369834], [1.8273325406987335, -0.06706609285942054, -0.10845978583240104, 0.24351150472930194, 0.008243396635583504, 1.1711040283961665, 3.670354360803052, 1.674285354852094, 0.005258498390082387, -0.26748187907987103, 2.418320283269253, 0.37491007418638295, 1.2163161664336242, 1.6154549348978753, -0.03847379024914751, 0.4527821027071562, 1.3023971391711293, 0.004707060001789877, -0.13048457030518193, 1.9401949674237164, 2.0319709699137327, 0.7527812711342853, 1.7100685944677505, -0.06200273078848742, 0.016910542544810534, -0.07628336588515738, 0.34916923643008446, 0.2538844258454975, 1.574002322489273, 0.7069609048810422, 1.0121543091789496, -0.25845775157516154]], "b1": [[0.8673938069987748, -0.0608104007518888, -0.042409919310156044, -0.2759224217852105, -0.004094783354912588, 1.0900718854000493, 1.1751941551526937, 0.7914158786457922, 0.00532438096858624, 0.006612828188578154, 0.8289704517076669, -0.39133299051432474, 1.108513255600581, 1.1508162900134686, -0.03528763755999025, -0.41233431575293156, 0.802897123241471, 0.0027415935967200294, -0.014875390801403, 1.185059191052443, 1.075270849768586, -0.5008178270825979, 1.2057382948991096, -0.006168730632894931, -0.0045121488260372496, -0.06999952206642722, -0.3627417136276486, -0.2677629661489615, 0.79843072400223, 0.41458655927754906, -0.40287431796936624, -0.0061094707418095345]], "w2": [[0.1332180418203644, -0.10845120886025583, 0.05592935100209609, 0.08789726639552317, -0.23933374375225389, -0.027112373589551046, -0.24159716367800968, -0.005778703298633484, 0.45815769077175195, -0.13713733952918344, 0.5201117700658424, 0.11316846364144377, -0.10739239864666283, 0.07630652366890014, 0.18248588363678672, 0.1696674156757166, 0.10057912149895214, -0.06488893645848814, -0.043883019813938655, -0.13246358454765034, 0.40263158440933317, -0.009507054227732445, -0.21038360884414667, 0.09114429562311009, 0.0076847494221989965, -0.1255319042883752, 0.07891624182172682, -0.01919497996613075, -0.16371327160719892, -0.27525943960763477, 0.040395392673824075, 0.4834187243173705], [-0.026786830845445038, 0.10626697952368609, 0.08177099929543746, 0.05003140495391292, 0.14433010281765107, -0.09753975079824953, 0.09679633164680441, 0.1500560574532014, 0.07385972609286692, 0.01170920257132453, 0.017954858225586817, -0.022221381058563968, 0.024702013824457764, 0.1428387816063556, 0.04591489419830358, 0.10003159993552746, -0.025617948831372736, 0.04963559811684687, 0.0814191057854609, 0.043509267541525044, -0.14444983995874766, 0.045347433338821505, -0.03129960808698042, 0.021477246399865944, 0.0009310700583113935, 0.048972145757777766, 0.05460312355453855, -0.2775916321246951, 0.14699122152470187, -0.1512533594418679, -0.03447476023384871, -0.14407857514068007], [-0.006548601771832756, 0.14273352808313702, 0.11557179849818969, -0.04852139546260559, -0.11585040403930479, -0.03350948354521461, 0.025062930329282203, 0.11630334493351907, -0.1300161087948579, 0.027424280736665398, 0.03194108439650659, 0.01795609738640201, -0.0765479675872728, 0.05765867062473085, 0.061917785497993524, -0.05031631389718819, 0.09994182163852793, -0.1642822647001268, 0.04447132963578747, -0.004741723556160248, -0.06577683171758017, 0.10323564990115518, -0.0005724837352194098, -0.07885721178446774, -0.12459320012859257, -0.15517509144918817, 0.25634583473255484, -0.03335651449212108, 0.05707257033342122, -0.009888297325755233, -0.1218790335461014, -0.01066807459811921], [0.05636630776864484, -0.06142507419583453, 0.122830874862245, 0.10943277077472367, -0.27068341886314273, -0.03443724188148221, 0.39741033803349324, 0.003460075606385675, 0.011948642132580505, 0.08603361073640836, 0.0398139429158695, 0.18031624626704296, 0.013837846583974465, 0.11369230909465808, -0.13923860264170992, -0.07339460819175062, -0.026665974706197575, -0.17019199119440692, 0.01571869713438049, -0.04256250579634515, 0.004982379730045883, -0.004962105920823004, 0.038615979869555866, -0.06483339226094233, 0.03672560525499497, 0.10836846412741129, -0.17305526314700523, -0.05625703419207596, 0.04455988432941814, -0.08350435545176665, -0.0024459045991007855, 0.0856774134511409], [-0.013102755262180622, 0.1085483576569608, -0.06952763096144227, 0.07678130976090118, 0.027182900008646163, -0.22085993969966694, -0.050661958244750165, -0.027243350617236758, -0.10831738912890261, -0.05934351440125987, 0.024217246251702112, -0.008628428838256222, -0.080062171732877, 0.1465812462478424, -0.0859805812399824, 0.20168476325256676, 0.08468224107479333, -0.04040043352806155, 0.06593420029358331, -0.019979314806594484, -0.23933135870963962, 0.15133581602712295, -0.0260302481319745, 0.0472730473103917, -0.04419237375248017, -0.005154767739089426, 0.14025059351689428, -0.03058585066051125, -0.0021690828261795594, 0.07211261854661474, 0.10068922468264992, -0.16628597340055226], [-0.1583341876526099, 0.021077906858255658, -0.08033420919215076, 0.22364903781814532, -0.16776443777399913, -0.04193045133354249, -0.31524659070620853, 0.009773717209736174, 0.42020370219818476, -1.2499087907252917, 0.4700433304330207, -0.11579485926379052, -0.09365610295219577, -0.08926926417559389, 0.6746838389240671, 0.07009358658298036, 0.24936351585117955, -0.16802981622203939, -0.28713837903177414, 0.06834477751261435, 0.6431986970542861, -0.06558236278142524, -0.28921203000205803, 0.3622558059144438, 0.1075919857430675, -0.010007724686030972, -0.10831915163860414, 0.12242150657749556, -0.19744171468350852, -0.0003488624771000998, 0.11998353758416351, 0.38749864027252123], [-0.0740000093454908, -0.10259073834476623, 0.040288619491005546, 1.3665976814148926, -0.20403638394726137, -0.08260306759556525, 3.791691526420108, -0.1472641056187085, 1.492122693797986, 2.1488013052750143, 1.9621903802226905, 0.1313365880848325, 0.02147010687447318, 0.03492637345833645, 1.5308199770437159, 0.0015054473129363702, 1.175508390858644, 0.026699166163110452, 0.16681055958009006, -0.04988633300962821, 1.7686768442165335, -0.08931392706057499, 0.5385114685076116, 1.1091676034271927, -0.07027430447478043, -0.24914958501357148, 0.09031882459458375, 0.14629217426856853, 0.027114997130075206, 0.016772179735171883, -0.20126056322481112, 1.3431673040367267], [0.0315874232632143, 0.021137289355929303, 0.15584096749475781, 0.5243386688163028, 0.08378705445860972, 0.000204295037810488, 0.07026473638122337, 0.08160555812030092, 0.8190951753333845, -0.5588686753062606, 0.8179464787959293, 0.1601170211212939, 0.11239502727192825, -0.008535176512964515, 0.5315852578828089, 0.07694123237832441, 0.27898395722203667, -0.001277158920710321, 0.06736469739490285, 0.026570046586494925, 0.7256498855316127, 0.07034704718916428, -0.2281380671216684, 0.24287134033732338, 0.05348082617319232, -0.019043041941239656, -0.20669814887791954, 0.13392340394514035, 0.1403955463463622, 0.13333027111217444, -0.07002595909313963, 0.49007142988564495], [-0.21741204197587288, -0.14430462862658222, 0.18870895760922765, 0.10005160721086605, 0.13175611158561049, 0.09442563300167614, -0.09749932505755958, -0.01060044294538784, -0.01632273536093584, -0.15261275910514294, -0.07014752398296882, 0.07878922756981653, 0.13610442236049528, 0.0007815210051448431, 0.09443439344316569, 0.03810202629746604, -0.06362098707194194, 0.03336684325480854, 0.08261764263539427, -0.15988458383151916, -0.07042218194453037, 0.016060720297328104, 0.13065826078756385, -0.033074501397091165, -0.12341587124192648, -0.07486867596692577, -0.08703536421928676, 0.20888739141466192, 0.012911258277654051, -0.06987491984357565, 0.041404055375666264, -0.029503098534655006], [-0.1767207600671618, -0.08354684909203369, -0.09663130720564234, -0.04195582127288712, 0.05186602577545951, 0.07538211743262596, 0.6310661623126101, -0.07997718093189661, -0.0522125438731295, -0.1633528734943981, -0.056861669045101725, 0.0869029243074873, -0.033577244198760896, 0.04582911856769767, 0.0028630032116735834, 0.01791861117303062, -0.025392406404326433, -0.13083993249037448, 0.17132500769523948, 0.07909231550721632, -0.017167569911316193, 0.05505265934225504, 0.0729801573581341, 0.0032012644556561557, -0.018075527278959103, -0.04684428184706825, 0.053287375095717925, -0.025334969410042853, -0.08947673731715113, -0.12342582599941115, 0.09049347908074303, -0.15157052708035743], [0.21975575638611228, -0.030122354001386565, -0.1312727357147016, 0.3012272501255023, -0.15902333588087644, -0.13376310124303228, -0.4405187365197031, -0.17727074224707456, 0.853988148058677, -0.3392465394919234, 0.7222679182721744, 0.17660215797305417, 0.07899945590012218, 0.11975594515649791, 0.5796094444623694, -0.08862580104308142, 0.21339135385500177, 0.022692813658103425, 0.1676781996697879, 0.06291307234038769, 0.7285399798371724, -0.05717242735256355, 0.08135720503763814, 0.5184207196091366, 0.08426603027909237, -0.13708702526691924, 0.01117699591633568, 0.2552324290089726, -0.036106088202853076, 0.049271490916821994, -0.09429897741640057, 0.62853378024654], [0.10413845027812231, 0.022729238086181214, 0.11496502890785969, 0.28113663438320996, 0.1140751330508759, 0.15786366692852544, 0.19424026056291085, 0.1385575910319121, -0.10634195161924279, 0.22726641065545072, 0.09430543397567169, 0.2186149178475435, 0.12120320515889418, -0.0061565085760864205, 0.10996013762618013, 0.03150907357014682, -0.06875992901771413, 0.12244865857454107, 0.19289496820858207, 0.004435089667471091, 0.01624788224288602, 0.11023743766443057, 0.034956576787547565, -0.27338632723943124, 0.0033590004097852, 0.01427784580450381, 0.04327341247180268, 0.022785433978438206, 0.09338724476043136, -0.014993948631924034, 0.024739577502324268, 0.06825863561757879], [0.11338524510054386, -0.14217756125473435, -0.0812425329595198, 0.5561046003840707, 0.24613741267406136, -0.009456553850339727, -0.27778299039860166, 0.021119298908982894, 0.4955431752712997, -1.214455225991502, 0.7082566140111284, -0.2425789057761412, 0.026911370796446604, -0.17215959275779685, 0.5122472386948839, -0.035450945608641315, 0.27125956680323293, 0.04254950965162996, -0.2666042114488997, -0.08445589970641484, 0.7849187706210654, 0.029130195157600142, -0.22383541963936693, 0.3589806621090864, 0.028612482272514558, -0.13007207358592612, -0.21737759450203256, 0.13658533958099509, -0.10361063224127806, -0.06176734600460278, 0.11903037670132463, 0.672623462912076], [-0.29446270968975913, -0.12039035519680666, -0.2414152996228044, 0.5676405589449808, 0.057979217922436474, -0.054089238453483915, 0.09706910737603577, -0.08990189009671667, 0.900392745550862, -0.8735008594244935, 1.1693609605273392, -0.256034872277915, -0.06876404897234048, -0.11250607533701805, 0.6323277438402034, 0.06383725633033283, 0.27207886277782223, -0.11584082381701924, -0.2581888407752382, -0.08712917445763434, 0.8133204877521325, -0.1306002428351859, -0.35901106801047566, 0.538811593617068, 0.0428008160405819, 0.20134344997473785, -0.039457367113414986, 0.24964653808262707, 0.0568799715679324, -0.047258739864152986, -0.03724508297380485, 0.689961093154057], [0.1438659808940939, 0.014309891298411712, 0.16207057624502402, -0.012940866508424473, 0.03523498324412778, -0.04847743373329482, 0.03336116814129958, 0.011019782230075069, -0.08540351562578846, 0.06858867278648395, 0.03908654263261497, 0.07881862580413192, -0.06477236307333657, -0.053192606600785806, -0.14780458580034067, -0.07872835846628713, 0.1457504478849847, -0.07422728648611278, 0.0996347475021847, -0.06791099377237388, -0.013607614001019461, -0.27799532147925554, -0.05143618235426986, -0.07133756505571363, -0.09484787171730351, 0.018725981558666113, 0.027291104588052898, -0.09275674361677198, 0.14702689740325223, 0.028382866041988128, -0.004292503635841806, -0.07591186154244048], [0.030560680924735118, 0.059203943554510974, 0.04954028564915176, 0.008804049013624866, -0.0992276373502588, 0.127659899492231, 0.17138988130131008, 0.03717647409628601, 0.16040266674879153, 0.08541843820419734, -0.04409190139393859, 0.10293096873393591, 0.272906198968128, 0.186323904652853, 0.1860769719091038, 0.060903933694783766, 0.0399683996635559, -0.05440535783218628, -0.08852577566616626, 0.008016006159329394, 0.09900988002651065, 0.04140732251049219, 0.15011135773359754, 0.040131969325933756, 0.07806492105066799, 0.12691986520789694, -0.17658813409627683, 0.03624571116939387, -0.10195884558695062, 0.06952971898896179, 0.010935262914022081, -0.06373202023831782], [-0.14679506861767005, -0.008938289886463058, -0.04956596415763347, 0.4001048449826476, 0.14468006705169795, -0.0750180510823473, 0.18840056955436343, 0.022466236112181643, 0.8253547797562149, -0.5802343533902765, 0.6838142106074395, -0.27445044503749294, -0.02601565579900347, 0.010085081529664336, 0.49227646262076985, -0.02865129992295383, 0.37679647090778323, -0.17931796510764927, -0.18175577709731708, -0.007547923837900477, 0.5375937953078408, -0.10400489661987813, -0.2349828020675563, 0.24794116511885297, 0.11427284879163355, -0.022706001297310503, -0.11030839725100129, 0.1515581736370546, -0.2091029329260858, -0.0747624675474139, 0.0685782330474509, 0.549709793780806], [0.13217044986293847, -0.12606781302829168, -0.05355745463026399, -0.11509428162057977, 0.015691305331668178, 0.04632770872727095, -0.013408268443466565, 0.039584574194077404, -0.02775551857355781, -0.011242002108352607, 0.07817196446423154, 0.05248227771186661, 0.008947555984713345, -0.08371941151850512, -0.041275332502358986, 0.013324774719486081, -0.059495176024418034, 0.26046343030890634, 0.043289518892674024, -0.0044407123698333145, -0.15438508999858544, 0.07853463691312515, -0.0819340303766986, 0.1777447226689436, 0.020518710116813214, 0.0005555977009844048, -0.04200861700689709, 0.11230931986051154, 0.08122118925230527, 0.15992224908440034, -0.15468196110170288, 0.01743956176400026], [-0.10552925156399842, -0.02524886646266838, 0.008609369525317129, 0.12185122216810007, 0.059840517820994844, -0.052121593665819844, 0.01975371878701699, -0.043620971810629613, 0.04583634517112596, 0.06996715900845171, 0.05111526640543534, 0.030590951124634377, 0.0032032842047473907, -0.1113851193807124, 0.06594972631508407, -0.033154871277539404, -0.02012914517283272, -0.011396929677080489, 0.04510648354748157, -0.004426670326402249, 0.022188114941010487, 0.12053552973976082, 0.014473157643455276, 0.0897253357684924, 0.08373221327944519, 0.007678869722908854, -0.046621743931853116, 0.010442998355644278, -0.01763693048939976, 0.04622408712820069, -0.08801927186378371, -0.009448929744841593], [-0.14350600492834048, 0.057891278961500314, 0.09817831105707008, 0.5298764249230227, 0.13503546256865337, -0.0926257500059935, -0.034660048571782336, 0.10566234312254952, 0.6818526012132096, -0.7613188582027514, 0.6962576730824103, -0.17487424345356553, -0.024172475299025567, -0.14593587936540836, 0.513235196742892, -0.1179151237455753, 0.37218767151648807, 0.051734170523137606, -0.042500687228347545, 0.14801932520177416, 0.8359119449912011, -0.06286165428920658, -0.18543128427682123, 0.3944858962901264, -0.21721216675892965, -0.11438141185972793, -0.057689808441114696, 0.15154218715815837, 0.06985622530468608, -0.06153922251922984, -0.041044995894356645, 0.544255751640218], [-0.039727970779525945, -0.02747530536564662, -0.056100245936047184, 0.2038076107738538, -0.07922599768526105, -0.023946913225943358, -0.16336479308541063, -0.04501497254231106, 0.8890450426050789, -0.48568848344057836, 0.8118637706255534, 0.15485621329212815, -0.018832927778549897, -0.10492423517540359, 0.38659278660014107, -0.08784604025348025, 0.04690554350729445, -0.20847761529435657, 0.14597207221883793, 0.01901275757128414, 0.6139478988868773, 0.13823369242057112, -0.009261693678525487, 0.26134527637568106, -0.016227215661169418, 0.02159584573595284, 0.09835343191616298, 0.35199697752090253, 0.003351238261265648, -0.062284085121019794, -0.05987564321530152, 0.466240435118715], [0.1886961477659381, 0.20257213506344512, 0.11763823343436505, 0.21926682096291855, 0.1617148590012777, -0.024735376785205262, 0.34643346613260123, -0.000443600235153218, 0.053878969916640186, -0.03946499894866387, 0.07374190931489637, 0.0608226960349986, 0.1636798421266824, -0.0759002546508159, 0.10467303522390184, -0.013418898507354622, 0.05952116037556417, 0.002402102263957548, -0.05672716692097096, 0.17877602216350882, 0.2865522041710128, -0.22560304771961084, -0.07369052265520736, 0.2228505879998101, -0.20679979028960646, -0.08225825420664912, -0.04635089588045191, 0.010555004840277025, -0.1693334004935171, -0.2097068806429618, -0.010878333149469576, -0.12376717418128555], [-0.05022043732807472, -0.046725523630533755, -0.13342484481636138, 0.39827426662934584, 0.0826067046084955, 0.06771816062343436, -0.23486168062261278, 0.026749549490406522, 0.8108051631070293, -0.9403190190775467, 0.664119091940897, -0.09993169265843098, -0.10508260682689968, 0.08259797267347203, 0.5369916099785363, -0.07104806390011366, -0.007432271763175305, 0.11471316003457753, -0.07114691656296672, -0.040888700407953046, 0.7595147642546638, -0.08056374324564554, -0.4177210176404408, 0.3117276642807167, -0.15535794302753755, 0.017244357418802064, -0.009870877829444246, 0.04418375053572427, 0.09396466997301374, 0.043088805522385754, -0.006492230236752402, 0.7491194160504002], [0.050233809221528224, -0.00582276776224599, -0.07451101861392748, 0.18932556434760495, -0.007656704524238104, -0.06674928784397803, 0.0928359384781071, -0.18244879832431382, 0.23124423676269523, -0.0016232877586766696, -0.08263839205504467, 0.07046385849723294, 0.14576816448310753, -0.15760353143351333, -0.1512458510499691, -0.13508723444082063, -0.11960688998862547, 0.04905951174171428, -0.10709500226279461, -0.14961492918166475, -0.03826431122295907, -0.08640953056650157, 0.050236583128200465, 0.08051513848947843, -0.10715480895811536, 0.04727772075778345, 0.13655480702170866, 0.1252456430424292, -0.010635983802212846, 0.02549595760683941, 0.17090405176834042, -0.00041344136867175536], [0.08803753946035729, -0.07260890502239538, -0.09059873394669106, 0.15945717304626064, 0.044871479744572104, -0.07935023311081366, 0.07777601537135546, 0.1900727687237821, -0.06976098544992905, 0.1710335989884879, 0.07938425117905339, -0.023272874313774, -0.1083095183819796, -0.04877233874214984, 0.1073632965847311, 0.2087180696955663, 0.044440451864280715, -0.18973297057226512, 0.12338276519221056, -0.021065813975976035, 0.0538241536103143, 0.11139891925311736, -0.004865820620862168, -0.038686943528150684, -0.11693685501143737, 0.035849512847467506, 0.05113528193818263, 0.09286744846685438, 0.008268250549978148, 0.003244120588621589, -0.03742373102565288, -0.22129010858377102], [-0.09002826352194275, -0.07187313694197948, 0.02315879237456054, 0.11482646963405325, -0.1844908804348583, -0.08638505277216367, -0.10079029298411864, -0.027908524873979768, 0.17853519965286815, 0.10425033997857008, -0.17780408683724608, 0.02818432376129499, 0.008203554413978284, -0.023261296312598056, -0.16504263730900395, -0.21848412948313792, -0.033799598132224704, -0.0608866572811024, -0.00810056129322973, -0.0015551701828764315, 0.07468914705827658, 0.07109334226769004, 0.09287619437448907, -0.05846565456834947, 0.011027497355713258, 0.12846505748287818, 0.13298950800865778, 0.08954915279863114, -0.11356989464735792, -0.157895784020515, 0.12739631730094167, 0.09639878245154122], [0.06183189399141619, -0.16948948995811797, 0.09210167360855592, 0.035304074801600194, -0.07942842975366432, -0.013923650718203296, 0.3022800537724322, -0.05293100116976969, -0.05242588801211089, 0.10342386032996423, 0.06492296583858136, 0.24051437851963567, 0.11956911899951253, -0.03030854730233259, 0.07852468504469388, 0.040768459070514754, -0.15045255231874624, -0.0926594295857728, 0.14077318749301418, 0.05253792012632068, 0.017008451994273158, -0.05779672884453569, 0.07119198296842541, 0.009558557094278278, -0.027369828832953014, -0.02492061504107631, 0.04284434084906363, 0.015514672448684229, -0.022757196043949567, -0.1396061377737944, 0.05243730983790231, 0.12030898393177057], [-0.051894370123315194, 0.01601607842964324, 0.13804703887295, -0.041990365722846756, -0.0294778466498646, 0.05942816384242713, 0.354321649308979, -0.02212282259801838, -0.1012256921681137, 0.12556190341569937, -0.012952403012230475, -0.06020563221886099, 0.14982386071299875, 0.022549671828741374, 0.1379046198052458, 0.02158921351773659, 0.1200934721459272, -0.04182376578489333, 0.26842655229357504, 0.08574295531878365, 0.1714801777804252, 0.05979332096038227, -0.009066443787772861, -0.08927521811503987, -0.03948247326547415, -0.06381042693890947, 0.055421424824958966, -0.1477817205361463, -0.040618039841868785, -0.14369048843018653, 0.1119822881078466, 0.06424973968898641], [-0.15812868711979755, -0.15551350134259861, -0.0626613397937961, -0.07378289120441225, -0.09590824359770003, 0.04834120154962475, -0.1971464572367561, -0.07127911389690833, 0.4673645007612592, -0.1371544950180897, 0.40325676497792856, -0.032052177079560235, 0.05634054454560443, -0.11272612417475811, 0.09338045779234953, -0.0982613161979487, -0.04934618712423357, -0.09373945406164191, 0.0231496614663939, -0.056545887944045026, 0.2753191517236889, 0.06806357400434447, -0.016136314080966507, 0.1250365905160773, 0.017451652635258413, -0.09209928983318336, -0.005935699788673277, 0.12054121415308944, -0.12903548172062926, -7.298838553777655e-05, -0.03602745947988403, 0.4262956322764237], [-0.11933442054134459, 0.18333673866330158, -0.08942496304802029, 0.4269985407667192, 0.005400306804483209, -0.08412650073644962, 0.4224998629826695, 0.027264347379575643, 0.4399090355212476, -0.7998776056209406, 0.7351982760902215, 0.03823693287807342, -0.08749180969613558, -0.06095773994478192, 0.5835627343396974, 0.08434658935610964, 0.23522471800577374, -0.030188295032339465, -0.04065211298908377, 0.12008328513423491, 0.5637396322038923, -0.08590240327195821, -0.21781396109541523, 0.23546385318940985, 0.014320079725274949, 0.09315101588158191, -0.07092615193891096, 0.09450181714835225, 0.09426373446713035, 0.06802577868566313, 0.040103657381585785, 0.5757575742950654], [0.11532290288837566, -0.007032708707217138, 0.07783987848310141, 0.2996347437763861, -0.05302401338114871, -0.06303308418779707, 0.47612054590713243, -0.11327189651315238, 0.07487954726021624, 0.07759082244218081, 0.4671158154911026, 0.04062212008950771, -0.13705476875121428, 0.036121505996788775, 0.48219574997292847, -0.1652918532182176, 0.2180804620401843, -0.11466455722965103, 0.08268504325901628, -0.1516079449884263, 0.3690923406531045, 0.01922499244316342, -0.1418509892590351, 0.2707252532110882, -0.09234328128438048, -0.07598460963402207, 0.11967412698205, -0.020969473737476246, -0.09738817396280662, 0.07590529778851858, -0.256508178004594, -0.009414080648003854], [0.04328564057919269, -0.1324464479513743, -0.04119908632361877, -0.14586487668487008, -0.10842151279446531, 0.032431407827965296, 0.13138636521573124, -0.029204774665704196, 0.006188547023786693, -0.1123536284400842, 0.005683397434828834, -0.04386560737954315, 0.1282838249580694, -0.1930018419559703, 0.10894274979940635, -0.20266148066322623, 0.038977131280872976, -0.11874146543371411, -0.05592069705799876, 0.08248143700469285, -0.033399429807413054, -0.11475252575076433, -0.07117614098811008, -0.09018122297896891, 0.0027012773092732058, -0.057649321318375975, -0.017485382780217537, -0.15070949236743436, 0.007440881256255304, -0.18579844132479578, -0.027995127609158368, -0.0980305044279952]], "b2": [[-0.054615588329003505, 0.0, -0.05275026292203891, 0.3416578212476326, 0.03151569053727349, -0.01931851831690051, -0.8855342059059517, 0.01795700428953796, 0.1890334840746694, -0.9500352589161675, 0.1872768941580104, -0.13815720486566777, -0.08998331398219044, -0.014010347433964534, 0.48344972865608365, -0.02185764199041771, 0.1308642207614025, 0.0, -0.0986599419065327, -0.09067943122010773, 0.49669446033288756, -0.0020737976530007998, -0.40047221909206787, 0.23075871554311045, 0.028712418992575855, -0.0010956212682630266, 0.002316049865333721, 0.031062424187147997, -0.008013927135178471, -0.003303627583037457, 0.07339379528979977, 0.2143116860483352]], "w3": [[0.3271098308751459, -0.08028457201970711], [-0.029578091161883813, -0.053661751807245056], [0.2702902265163904, 0.055934576879549065], [0.004557422061771477, -0.13381491833823092], [0.3424311397326417, 0.11534479751486765], [0.13692443893404574, 0.06221397643519219], [4.167640634700976, 1.3559808769422381], [-0.08359662180060724, 0.12252830703195564], [-0.22268496496813428, 0.0886674570814761], [1.770524013367825, 0.13846989386811434], [-0.1407971732670903, 0.20783448221632092], [0.7225618368940291, 0.04936774251214377], [0.21802395424358062, 0.04292606386697315], [0.2785258960576434, 0.08429709049274563], [-0.05957049289804096, -0.38856924078737354], [-0.01977591585823751, 0.11552197613077325], [0.056967008632171634, 0.14368846561945853], [-0.01913552728397871, -0.00818683536557213], [0.6728227084304156, 0.13821364165444486], [-0.10382926401118305, 0.12700069674738945], [-0.12008153117113077, -0.2394075222029664], [0.006590441476751065, -0.05922423651234416], [0.87972226185572, 0.13723403322413172], [0.022010340517118178, -0.11741220440571486], [-0.16195705956079895, 0.018285453679477242], [0.15471536897126992, 0.03677186467326193], [0.15005574519304715, 0.045174748947430975], [-0.138627880976927, 0.16907669054753682], [0.040617924402853105, -0.1227985460777795], [0.2673201677072656, -0.08226418119044047], [-0.05902235684993904, -0.1728646938296565], [-0.15215423207883202, 0.011194194364147151]], "b3": [[-0.23415287129952064, 0.18668248199669063]], "epsilon": 0.0996820918179746, "step_count": 57225, "episode_rewards": [551.0997732696593, 337.517044239192, -316.0350102689547, -32.37512203386958, 399.6200192153763, 490.844162986884, 516.9468213888887, 802.2246667327751, 203.56813343897812, 546.2387645948209, 574.5765871317323, -34.296837431257565, 256.91324631553084, 709.1538655880639, -14.197938480773423, 548.4491527530853, -134.27277376767816, 404.97605094994145, -130.21487059334612, -199.43781252234126, -128.55542501237744, -69.9455611700988, 389.70000000000016, 193.19750308382447, 368.6170895425919, -161.87862779317533, 550.0756389966716, 937.7, 261.5855116201344, 450.6188456839371, 214.3950084629675, 374.66369082969817, 531.0000000000005, -42.26758226210424, 1002.0, 715.3800699896685, 37.22340561672972, -72.0920835985882, 761.5121209587865, 117.1965177951574, 654.9900796163474, 525.4418662183684, -12.2691564614083, 303.5640152220824, 691.2116878536131, 480.2178913996833, -151.67128614254213, -150.3172173126113, 296.7374363261387, 207.24733334768072, -129.09170652114767, 455.97118517218934, 671.6082411584173, 481.1734367917506, 452.49510791194257, 338.4619178246396, 933.9192238759844, 225.26126396948942, 560.383641709586, 914.8, 418.4174702054107, 958.5418480466095, 248.3062447128589, 671.1754174416078, 467.8999999999999, -47.03202980864398, 160.89007408976542, 544.7373436401595, 516.4000000000005, 586.6999999999999, 1002.0, 946.3, 603.9983067179146, -73.4688348206143, 883.8653789491829, -15.822161841561089, 535.4404591746337, 223.76753540657032, 822.0478422459068, 563.6000000000022, 787.0792948231685, 219.84594050386366, 910.0926585679737, 110.01565339299589, 816.5, 450.6576089921227, 998.0, -41.54061074506182, 473.3211651952827, 29.69977262968446, 865.8701851230057, 723.5271906475033, 541.4274570325374, 315.74395109785456, 313.05828515841256, 1002.0, 1002.0, 1002.0, 1002.0, 1002.0, 1002.0, 1002.0, 1002.0, 1002.0, 1002.0, 1002.0, 1002.0, 1002.0, 1002.0, 1002.0, 1002.0, 1002.0, 1002.0, 1002.0]}