{"w1": [[0.009267007630915954, -0.240706413069672, 0.21136501385732567, 0.6850704132906181, 0.5037439929061472, -0.008967721069470228, 0.7223313925095933, 0.7190520668467725, 0.751313123664711, 0.05490956936866713, 0.4111257135324172, 0.2211156729751935, -0.32460903962364873, -0.13724237231623954, 0.03250821755190887, -0.19307067683593682, 0.6887660259172206, 0.6037810384707607, -0.09193964074066552, 0.15373924472882372, 0.9692422093511464, 0.05601703046302149, -0.0263604781955698, 0.20345947923174643, 0.17551482324724815, -0.11329173904490157, 0.5839231418979196, -0.15540864494843104, 0.06926943709362293, -0.44226817131294915, 0.0429515457253382, 0.4623891723421121], [-0.13686688029226618, -0.2757766972648743, 0.028683955041714344, 0.6210802590697061, 0.22250572090450765, -0.08936191676696818, 0.1048911848599645, 0.26329604034110193, 0.873578293461282, -0.0659654301939988, 1.0703825806602412, 0.16336090351380075, 0.1511791099816451, 0.0009152685511586733, 0.17864407183266584, -0.13627658195084033, 0.4529780252880164, 0.4031587918469851, 0.0752546077560118, 0.009252697403437014, 0.9588147318505119, 0.26091010327382796, -0.09507036315649588, 0.3294680546465955, 0.2480874215564769, 0.09377647935421436, 0.28933217931104815, -0.03390006181681432, -0.0773263084221003, 0.3344370398128339, 0.2022905591124238, 0.45973530625008907], [0.029304788715391175, 0.16128040453464434, 0.1774500141803861, -0.27427115265855845, -0.31342420300494567, 0.022048944833772205, -0.1434333628860038, -0.15203437471697281, 0.09549312358137822, -0.10706039153909681, 0.3684928460638894, 0.4170309248206104, -0.46403768434709947, 0.020827392429642703, 0.5533409831827548, 0.1325699691969659, -0.22466706205018075, -0.18765665994130828, 0.07251797092387222, -0.08222399819663948, -0.09432714645176048, 0.6806033004094764, -0.1295504655767586, 0.5273366790431548, 0.49869029062057296, 0.5235328997429806, 0.05392153573064387, 0.1717095163359315, -0.10237597149918638, -0.5057926915814069, 0.777686548018215, 1.1107299026074688], [0.007521327181228145, -0.1674492592341507, -0.21223258891846006, 0.051713981086359, -0.01706890981810179, -0.14982743563224923, 0.0037666558859614885, -0.0364863192545213, -0.15448498386771345, 0.05012029829651142, 0.20149540602762692, -0.05721020455164662, -0.0259389484102071, -0.0317066016458148, -0.053934161565525635, 0.2037214860256254, -0.12912203554307833, 0.018072241438861176, -0.14557062887848662, 0.0447636255160912, 0.0597438535130198, -0.4093480028113515, -0.11948508169941655, -0.12096184970016452, -0.251700096212444, 0.00797648633750751, 0.08895032427853634, -0.052745070164554174, -0.017604201196727398, 0.0035219317619180554, -0.3187644113200525, -0.25806458028530616], [0.08853088862398815, -0.07799388470950702, -0.18982267379627904, -0.27012196625488466, 0.027470698343016867, 0.002117952194695299, 0.1257432008141749, -0.11245772330903717, -0.19135678232962297, -0.11458905311845127, -0.12678354596090394, -0.12170848182563314, -0.010746577542601773, -0.04191533864786509, 0.07597146537559694, 0.200341974999357, -0.13903530718263626, -0.0033395646831023557, 0.0439817800332112, -0.141152211616973, -0.14815377953791842, -0.3344565701033232, -0.13996221443366622, -0.05458660081979084, -0.036606692258006876, 0.03612101303979171, 0.1077447666103669, -0.08024703032928618, 0.05610128167756482, -0.28130624896009565, 0.01520631322090836, -0.20444688627095609], [-0.01363589815745617, -0.148468516439889, 0.35477877666583046, -0.04259168086734754, 0.06928459518766349, 0.07369766477976042, -0.017191212538033213, 0.16497637249261696, 0.2768434548221892, 0.03274574312717787, -0.013341410642662336, 0.3343536121158423, 0.019840326097165243, 0.1376006054479392, -0.17581139888310435, 0.07338936366800757, 0.09766062653397796, 0.057704984946428124, -0.06825670824815698, 0.010221392426499916, -0.03832396832390083, 0.22659885637525579, -0.10814974089119854, 0.33056001097504994, 0.5276743924339036, 0.3031744139145699, -0.006122578527349139, -0.1424652449598241, -0.042734538335217356, -0.6236327029792786, 0.5432208302778111, 0.5718914641331704], [-0.012591679657355973, 0.2994229660785971, 0.5128360308582055, -0.3919357763544879, -0.3797423242511043, -0.18190158993116662, -0.5530791276014541, -0.46252805792104723, -0.22692969137019162, -0.019318791898626852, 0.026401040770760206, 0.5463654749414645, 1.9716186125069528, 2.2552503495059635, 0.9551587936847872, -0.395004960358827, -0.43493687950521154, -0.36946505703151905, 0.13664961304273351, -0.04277766846363072, -0.3269754357029042, 1.5118829846087514, 0.42945128799410504, 0.7680612896512073, 0.6074688664323389, 0.46026110680520765, -0.4712531592130155, 0.09633652939006607, -0.07750135256196428, 1.334095322348907, 0.6553331215638118, 3.143587933258197]], "b1": [[0.005460454482435011, -0.3440055210064352, 0.21432159754645158, 0.13127461577505445, 0.09073563669096306, 0.14917130250760086, 0.0016228969473059116, 0.017117218763453634, 0.24890622012859406, -0.02134511453926685, 0.2725391753449446, 0.29600995489113807, 0.28735282917426774, 0.3221064258093334, -0.3391685110085478, 0.3085160148833449, 0.10864021231273627, 0.028880694061946724, -0.17172806701490426, -0.0068149678774314035, 0.0398997734796863, 0.006359755123933411, -0.39590009324867537, 0.3618634520774797, 0.35223464980731295, 0.545787515021856, -0.10347515475214934, -0.16941037171292572, -0.0058237717553914865, 0.13868906130877226, 0.3395498011312254, 0.7068295520035218]], "w2": [[-0.007542008228134794, 0.024716489778113446, -0.1779498695231957, -0.04255483402960398, -0.13683743933077178, 0.0997764992302206, 0.16880685684753438, -0.18172570006355035, 0.13795448348096784, 0.12006479036788544, -0.012605669859434105, -0.04383359092224807, 0.08010307802159271, -0.04633697244174844, -0.10188310361015682, 0.0071373511428159415, 0.09315990608649748, 0.09891149243036862, -0.10736805612790046, -0.14140026042011677, 0.08360899200393845, -0.2302339308610713, 0.14175694933186206, -0.04203261145935938, 0.0786054915798072, -0.11159209549319961, 0.0031668388847417646, -0.15636689902758866, -0.09482327931325076, -0.08869671460715224, 0.033257264312899104, -0.05686407421911193], [-0.0160084971369558, -0.0497494978927638, 0.13927914229267108, 0.19305623941092992, 0.09422771471298902, -0.15024237017486552, 0.031034268450873995, 0.021408884772547588, -0.022766413739346944, 0.05133354501000321, -0.04352511870512659, 0.12613189111225995, -0.11833323980596781, -0.02184245282899573, 0.0006328001654178168, 0.004469593864248156, 0.12104930051702888, 0.1001158520527704, 0.037154189839597486, -0.2209348956997293, 0.2188283086864841, 0.016887626530027174, 0.10341984369785039, 0.12269074977457568, 0.161488997567999, 0.257912907178842, -0.05083558510917544, 0.16206794972515504, -0.023374612420702177, 0.05808922541947588, 0.13041892514935008, 0.001641280384616503], [-0.11457350702011752, -0.07781653604860297, 0.051958608282156225, 0.08865695666478493, -0.13084224452244891, 0.1503526742342933, 0.04579689741506625, 0.1212673673741728, -0.15544539483825776, -0.03282276761253645, 0.12247200510891151, 0.3432486721639857, 0.04709352107180029, 0.034718724585431474, 0.3160904953011043, 0.1977664852239723, 0.016549246055274077, -0.7535998942160005, -0.23874084059503142, 0.18949149110832275, 0.15735811840243746, -0.0956645765303816, -0.05704791771987605, -0.04693977288537598, -0.5001032121938699, -0.34887748850079764, -0.014099127363585533, 0.07764025812255818, -0.05258695492530571, -0.06358846985444565, -0.07966439167168576, 0.17303377041083703], [0.06617665698303307, -0.004419465441800386, -0.16599369007493325, -0.2557924902770281, 0.09372574628140952, 0.10861414370993326, -0.1570730603675759, 0.09542460348011453, 0.27654417053951563, 0.13780814957957485, 0.13461639714352625, 0.35769541359270773, 0.19763024280680352, -0.06494546480405065, -0.0038549227478911793, 0.3258318284036393, 0.14357682000688796, -1.0114269422778293, -0.13278834412128424, 0.394662579625333, -0.0030482243526920557, -0.10100430384905526, 0.10422394322591237, -0.3739603418973409, -0.7681351987847048, -0.6872477627635039, 0.1643977136533466, -0.09588481194296679, 0.3416494411273983, 0.0461119030244129, 0.006013333447236675, -0.3139020749400341], [-0.19137466434443925, 0.30449231108820846, -0.08824122481742679, -0.0006455544117518254, 0.15781586348237203, -0.05999833619888882, 0.022735251578810393, -0.17306808414024585, 0.2737063239738913, -0.07587628793462436, 0.11593767440678264, 0.31110703385095767, 0.15622059372481806, -0.04570107177157168, -0.08264526110915749, 0.1664364920474011, -0.21602209047641363, -0.6435434758566634, -0.021494946113876246, 0.23782220325061262, -0.08070872917190156, -0.20921924023024518, -0.041998223795133995, -0.3493449433399272, -0.45287886285458745, -0.6853258267819291, 0.006593039633819373, -0.08807115173946074, 0.2263127336920064, -0.04228685373368968, -0.01227280934882577, -0.10391765717882097], [0.11625136738583795, 0.1262499963189887, -0.12448567590099394, 0.027288373243174253, -0.111222148178171, 0.09225637808310834, -0.08314140048231673, 0.0017297904756878567, 0.11561699528066595, -0.17416185916362525, -0.019255839584806072, 0.0637743857949011, -0.10983075135640526, 0.11558943567700591, -0.04959867787708267, 0.0028072900036489883, -0.0926051043944111, 0.04323959649907878, 0.0076542541875970135, -0.08675510122262006, -0.09176276125577607, -0.08235894884944626, -0.0845204270626932, 0.07568808131047548, 0.20417575781786404, 0.0939992060412908, 0.002957848337023832, -0.040404616897315684, 0.03165789461069397, 0.08749717664425691, -0.02194263320689902, -0.12052456604306372], [0.04500853055476052, -0.003974860999473269, -0.03257667330055475, -0.33836261160422937, -0.1351824215773315, 0.0030219752603058555, 0.0011229186732791736, 0.034538044400193216, 0.1601712629147013, 0.044533603002616454, -0.05468900197638552, 0.36730980517143, 0.04785769570774476, -0.0023619476517030553, 0.026558472748045743, 0.1928267268411391, -0.06377581032340986, -0.45119403191925606, -0.003988470647778742, 0.46297040168088494, -0.16479727053505988, 0.05589562631845744, -0.07915283341802161, -0.37617578125907386, -0.35813768434291327, -0.3796985497950443, 0.024149510659989794, -0.04116553528769895, 0.22965521165882558, -0.14088805190855525, -0.15642673864569637, 0.06862633857902684], [-0.08101894034150385, 0.08179505914521437, 0.024668470076539727, 0.05900175499188484, -0.08115104045737692, -0.038295061637119106, 0.16613816654769417, 0.056231204011090885, 0.007558529060966488, 0.015549479198016873, 0.02288854104816243, 0.3919868986751115, 0.02953682072296262, -0.05406303930708052, 0.1665488279230061, 0.2453682127292964, 0.020633872932373055, -0.8381349690738428, 0.011333009950029845, 0.19036018004031602, -0.0731306894634145, -0.0241471909565142, -0.12115887953326472, -0.4767195293631479, -0.6263207587302917, -0.6887481161607679, -0.04968259309452255, -0.16904675467596258, 0.25467926355371423, 0.03276396676834428, -0.2680079594207596, -0.0021632080612708], [0.1602588902366984, 0.13766836214090686, -0.1159393090807705, -0.06012400126747639, -0.04551995031813324, 0.24224042546574306, -0.10097180867597115, 0.26537534244080546, 0.3615795985347414, -0.09979328548863829, -0.012167230352523647, 0.25500675783738475, 0.44920428444997973, 0.01783394113804278, 0.2558127864452395, 0.022324850763518166, -0.04917948243095236, -1.5691321118805526, -0.07982011967994765, 0.22953076057834096, 0.1142274726792557, 0.09452820597422151, 0.004505226461024227, -0.5012852480908959, -1.1617333377739634, -1.0879253305213323, -0.2854738033618704, 0.04557798275114261, 0.10647391604833459, -0.04750350687035869, -0.06937451291235748, -0.11882522086148044], [-0.1061691089021283, 0.0437387943740639, 0.05648413102012924, -0.10387566342839218, -0.0026904819484584426, -0.021189557694721056, 0.019697376428318418, 0.15864393939069513, 0.11182743411148002, 0.0327496406819011, 0.1636790119882992, 0.13002530831152068, -0.010585483014086386, 0.04506070757560595, -0.04560196946011815, -0.18885347086291257, -0.20505846185891108, 0.16863814707694263, 0.04848094118523527, 0.03018823021366544, -0.11880138015447182, 0.03125789263509434, -0.06934453253029535, 0.10249664438639863, 0.08266477829633163, -0.029472191288100788, -0.025568681731330766, -0.1475939693087565, -0.07408766077875673, 0.13455591166340167, -0.14852944351582023, -0.07955289294926557], [0.12582160831635908, 0.4223067063740291, -0.0697250693676171, -0.1105792589443593, -0.015224609335011099, 0.3091634385744159, -0.012758708907063822, 0.25308586058072174, 0.26972511285234424, 0.19866616151776695, -0.060079818342038294, 0.6644383396780986, 0.17266622207882826, -0.052663459461596285, 0.16265196730461925, 0.20482169820434146, -0.18303687464619106, -1.6917308336208303, -0.02418951130768491, 0.5557682813304409, -0.046557726336822265, -0.05580611583810009, -0.05661592781905428, -0.639359797705235, -0.759096346903265, -0.8229720480157497, 0.036935482240830236, 0.015419986514609192, 0.5116706659172859, 0.07919408839665615, -0.09802272557944923, 0.14131268071464675], [-0.011941042921734025, 0.03322284198126558, -0.009126016806515253, 0.08515493463367625, 0.11311176365488629, 0.19005261568456494, 0.06922090835510492, 0.44956653861160795, 0.11138139545663242, -0.16161056907154844, -0.07805787910129178, 0.1621336378932675, 0.15427218512029922, -0.014136221275137806, 0.12240069536595788, 0.05666926627850865, -0.12076489819669577, -0.8871821803506658, -0.11520605184037808, 0.19154937427808064, 0.0064433902858487616, 0.017204418765290188, 0.10000927038257547, 0.04519021383589961, -0.4627580655393415, -0.5132268019818349, 0.04255429567384425, -0.018301097105746907, 0.16755141825745481, -0.05601456409313557, -0.20314333744015145, 0.18475477606198612], [-0.08091630557799852, 0.7545531607997378, 0.20664567272386067, 0.040371486062135704, -0.08410483378084538, 0.7300690669273329, 0.08027669021662939, 0.7042433921522468, 1.1415790438225746, -0.10715445567308204, -0.09666223294699723, 1.5846321966708201, 0.7825946147295051, -0.2063451663541501, 0.7731433394614918, 0.905174053693669, 0.13990373885711269, 0.8410886502878392, -0.15278852967368464, 1.6008660546028897, -0.21052652644918207, -0.10610947183484405, -0.10748991701234643, 0.06331622455113581, 1.2573270444614864, 1.3671202196726602, -0.09631442685493939, 0.17030311041844912, 1.107801240337487, 0.09951215499130947, -0.1471306468634195, 0.3717546359471061], [-0.215007128334908, 0.980053856606171, 0.042356442661363514, 0.02326672699973316, 0.10259946501366506, 1.1221005433411941, -0.009067394613157411, 1.0236893869190533, 1.084504788243866, -0.017988049736989215, -0.13138276109022728, 1.6582258263115897, 0.8462932000443817, 0.07092394897825188, 1.110364504117751, 0.920588497366916, -0.03362674485571026, 1.1438064187205592, 0.1423377004113417, 1.4912134263961079, 0.1321372359296452, 0.15048424386514203, -0.11328643968537742, 0.07252548821531546, 1.550893786449415, 1.7378794030297184, -0.013134167410983654, -0.14015647663159414, 1.213112526979572, -0.08426463967731207, 0.06935867899236559, 0.5624895662945629], [-0.10277232152886676, 0.16010739582005812, 0.13896157259431738, -0.014866663524683741, -0.2935446737766093, 0.18774115969411512, 0.1325374831284681, 0.3551694149139709, 0.5233436986692045, -0.10667890547177478, 0.07656072452873533, 0.5287265070778051, 0.38023116165808246, -0.08490081031211572, 0.30607606489364597, 0.23966080544219398, -0.10322058098003845, -1.396063589604975, -0.044555004012337626, 0.6469978638915262, -0.03527453448104089, 0.10273960628696142, -0.15021399344151604, -0.15657980630844529, -1.046628670761884, -0.9114072142160576, 0.05962267778377674, -0.06556050602219304, 0.5411063265257458, -0.025780286513242726, -0.030756649386596738, 0.09275407636805612], [-0.11526833212556335, -0.023777604255593707, -0.02450662034580057, -0.02767960613779146, -0.011890661602566634, 0.04055921954746215, 0.04979446801258048, 0.08411097274404138, 0.0931816113165476, 0.17938244364307832, 0.017219688127881303, -0.31422489033380163, 0.003625976928913377, 0.0901594232026316, -0.044851906748444366, -0.01804840471869863, -0.15722813846390363, 0.06154330296008948, -0.03477342748563889, -0.26887775439327566, -0.25874944422404544, -0.04291426032345598, 0.049061103523027026, -0.07199061474592813, 0.475808887343125, 0.503537755225858, 0.14439357174595596, 0.19237437826809073, -0.01210402197558508, 0.025857197451261138, 0.05077579245193817, -0.1718425249319723], [0.06728778608151237, 0.10723495698541204, 0.019500942729226384, -0.11334570664834018, -0.2972508742201712, 0.19278560796645763, -0.006100784506305095, -0.22804094821263346, 0.049029095604244434, -0.07296731802100737, 0.05859740783112448, 0.3177808907053024, 0.04640453938090333, -0.373526121054843, 0.043817977942563605, 0.3291264168018501, 0.16093625389573452, -0.7865196673272202, -0.1835559396576429, 0.30207134510099065, 0.052766216660265125, 0.057675007186520855, 0.027740699002048636, -0.4615711891162606, -0.7232482552928394, -0.6244702432766776, -0.11976408139769386, -0.19501995988681617, 0.2827278921429442, -0.0521460286741888, -0.009173288877863098, 0.11886029156427488], [-0.13123335188366864, 0.15936456745262903, -0.21799077798331473, -0.011831140221248235, -0.028051093278207484, -0.08791207573894003, -0.04597881966774251, -0.02788556188185894, 0.08833749273290632, 0.14184931009584073, 0.051936495829089775, 0.2624629260871154, -0.006368437180129037, -0.03993668571327417, -0.02334949848590509, 0.14646190087707753, -0.19873832477171374, -0.5835523274343803, -0.06068938098298809, 0.41987177051572877, -0.1653089289939049, -0.23814722542904043, -0.029667072860735545, -0.398191278387413, -0.5306139429514177, -0.8135058925411458, -0.1334787332660615, 0.23178985950337952, 0.22953753658052478, -0.03170626510487599, -0.11360334314518226, -0.06584734958118375], [0.10256168794660081, -0.18646490495847673, -0.09612634645829671, -0.10214943044450905, -0.03232977316825254, -0.0050686805766356445, 0.08205983147633053, -0.04316320536121637, 0.03214852579054072, -0.03202998751230933, 0.04282070385641538, 0.24170263952127433, -0.08998599460823806, 0.14803686230407104, -0.1569930255685914, 0.021757497814966116, 0.046970031627235696, 0.19836501651356217, 0.04373077394180391, 0.16898229875413107, -0.10012187444376613, -0.1262992116207991, 0.039510722831195964, 0.06904813027850243, 0.0051726193652495405, -0.029617792284082952, 0.05605797868118311, -0.08438444000122508, 0.02204143222017602, 0.04065825656697631, 0.06846255954143858, -0.007918844200028726], [-0.07926880988819339, 0.11280547133047444, 0.07460454945614775, -0.12064190451543533, 0.05817812245358438, 0.02278791466343521, 0.05757737918055312, -0.11716629026347157, -0.03284775692639991, -0.05813854697353514, 0.07186562041767938, 0.19334148208833568, 0.20491469946162072, 0.1728265330148401, 0.043896829886133464, 0.0040720567788188515, 0.04591751472122926, 0.1882452760115801, 0.01996985186550326, 0.1022086756081323, 0.04968740156772948, 0.21610876903096848, -0.10045243018465795, 0.07010320776249225, 0.15900102685247766, -0.1627655485585443, 0.12296803640022685, 0.23881657012225047, 0.12395589077478986, 0.12728531797487533, 0.15730413906805987, 0.05602288673342497], [-0.12570623144197612, 0.009714132797371076, -0.08766966636491996, 0.014882420767909748, -0.008791903700132797, -0.06297692063319607, -0.17658606599046106, -0.07662979287811805, 0.16863763941353782, 0.09264061907020525, -0.11260097354119282, 0.4682368295640888, 0.15428266522566264, -0.14886484129655103, -0.06380607014683741, 0.32042491082711444, -0.06198965885617435, -1.132157039934437, -0.09007793245595115, 0.41286805591272735, 0.05225845767391201, -0.08852877556262946, 0.024868041656971693, -0.7052127892467738, -0.8959212657986598, -0.7992137827129449, -0.16190871266935644, 0.007185319041602527, 0.3382088529131661, -0.037571965120315416, 0.07870192029159005, -0.027433539284086237], [0.11434515746126489, 0.33896600324100995, 0.06042598494827537, 0.15342734687253132, 0.15052788898433345, 0.7020689099017772, 0.005652839498503512, 0.48655876593349895, 0.5721409750111026, -0.08169717102360337, -0.1661571616136322, 0.7894958644284968, 0.5612291207162452, -0.03809419774836645, 0.58661303844566, 0.43541249355495315, -0.002191521580012565, -0.5259154342143916, 0.04833760639436099, 0.8313945168167705, 0.037831968558629775, -0.16910391909854944, 0.08466969302047417, -0.6538257520134475, -0.36841716354841036, -0.060857458967325334, 0.11895516636246638, -0.09374689945762447, 0.6514186845286053, 0.06945682330645712, 0.06752117654375703, 0.3674249366391287], [0.048231811353532474, -0.00044460408795051593, 0.1456770564242019, 0.16777161253738632, -0.09077618047696612, -0.14046616435472528, -0.031155549487394536, -0.05584119061179735, 0.059029135444584435, -0.05689821893876771, 0.2202034746140191, 0.021192201610531043, -0.05903411880704775, 0.14010070546171455, 0.01055871490188025, 0.049343774811827015, -0.17775511690973758, 0.2512460631696574, -0.0575867953318715, 0.08141967189235652, -0.03406974602418079, -0.03365729546713889, -0.013604043473921615, 0.10515102508757304, -0.011290955454154072, 0.22713789899794878, -0.03455298343349273, -0.06185484181996588, 0.12698985086530548, -0.04135696894530177, 0.012754969290480336, -0.06235360121789031], [0.02941811421923518, 0.23245079584150935, -0.08498774915175823, 0.04176017689450888, 0.12107332009196868, 0.5622172436256082, 0.011363890382470505, 0.3869355302484557, 0.4762974604296546, -0.012128903896736107, 0.15804077090094917, 0.5069183120267541, 0.21097550135146204, 0.15732634002609544, 0.5243868958321086, 0.2910058671450428, -0.07936244604799224, -0.9497691349788506, -0.01321029362110714, 0.41743373938102935, -0.26535717860866453, -0.013182430847647572, 0.15860457841847223, -0.5214414291064848, -0.201015617506756, -0.33543908530869565, 0.04340550947512483, -0.04787452396029922, 0.19288019649279994, -0.1598507102910014, 0.0961107723393141, 0.3937688999054393], [0.039380396486895834, 0.308542073275336, -0.01620801615109185, -0.15290260861302463, -0.016963841310120416, 0.3930871220116633, -0.02335374338198372, 0.35372847596666646, 0.2776146404906161, -0.1577267255208292, -0.08294896578375002, 0.2808340011514488, 0.14776319242338384, 0.03867066991038447, 0.3157173019173563, 0.12469652633693523, -0.040376132952158826, -0.8705174360479078, -0.00392521207256705, 0.18688472363519584, -0.05142027005677399, 0.03904710455250968, 0.17156773570387265, -0.1173639972754921, -0.4732229130084818, -0.4515684317492197, 0.12273973824201759, 0.06119751220714845, 0.1617777187243036, 0.11416045399799056, -0.038446172862479554, 0.3767555747425954], [-0.09031699184992621, 0.17327623821318805, 0.04225271950681243, -0.1669408915947439, -0.1313261146456615, 0.25038696882118044, 0.0231376129167046, 0.2466246025191842, 0.1098070673973925, -0.004372365729994958, -0.18129060635401076, -0.13803339510567256, 0.05767243791590819, -0.17685441730697404, 0.22470568933037127, -0.11488831007323512, -0.18969317809395556, -0.6886779308344312, -0.10011255230995288, -0.17121145782965763, -0.0450076276813737, -0.047925544114032374, 0.0997039596396871, 0.11370781476667943, -0.04305105926407843, -0.1599325705314985, -0.00549705127988701, 0.16099700322115826, 0.005806040580082834, -0.18278911971947867, 0.09952037135526182, 0.0049228217060816246], [0.00622709404365895, 0.08135140085859623, -0.06597431606025184, -0.3429652648915478, -0.0975795868939452, 0.11055185597182218, -0.2522789968970291, -0.13353482604321798, 0.15300444658870127, 0.024710074267502005, -0.10016528647319714, 0.3043019180720419, 0.03034788369470731, -0.027553115954931963, -0.017823735688848385, 0.020024165628912485, 0.15102010853654946, -0.6318730959886314, -0.048453329077256066, 0.37539773897465034, 0.09170229091752738, 0.09911966954585842, 0.08755442433038384, -0.37432685792306747, -0.22399286373075286, -0.3560006655932716, -0.14472222239556884, -0.0798569829042167, 0.2293237332913396, -0.028950708061805226, -0.06102529448195736, -0.06174581625887826], [0.059964845883513584, 0.15909412771402692, 0.1533172795395415, 0.14749214135170774, -0.03212286652756431, -0.1397933566328724, 0.09258646572027997, 0.1385357201083544, -0.0389874254188729, 0.023522315639173015, -0.04619350666171909, 0.05195340270887615, -0.16918934070609518, -0.055371019328324, -0.10604675192185473, -0.015359348147594057, -0.1807783756996315, 0.046801419639612714, -0.03285294468809762, -0.02191576237511282, -0.08334041010661025, -0.09409360156658482, 0.07287697996319013, 0.20705532720030279, 0.041409326150884204, 0.18627617789312859, -0.1816087482176319, 0.06556794261772342, -0.07506415644879896, -0.08649563685710579, 0.09150960112307435, -0.06129461169178935], [0.03926932664756619, 0.10412527540570668, 0.12681872072885586, 0.06447139699578695, 0.07815288580345624, -0.05840396500496027, 0.026854406718755414, 0.1037153239671252, -0.07036565129139012, -0.0027235248605723453, 0.043640950367484097, -0.09760720927261504, 0.01064822574237672, -0.11010546748964131, 0.03005240199339471, 0.14288339695084737, 0.08683889936467298, 0.06453904690002861, -0.11255879764893531, 0.05969538058999059, 0.1283133205739709, 0.16423767563057493, 0.17931629920935804, 0.05431953717147578, 0.02405292917941171, 0.08282357852561954, -0.15871419697471748, -0.011634954685457074, 0.14903753824795726, 0.10216453264016544, -0.1325759309366213, 0.09997615050990095], [0.0714549216753175, 0.445124738878966, 0.08674174439838514, -0.09233738157045894, -0.06164997610026048, 0.17796445314428777, -0.03732705442200665, 0.19285170180895084, 0.4611660284387147, 0.056325279810214256, -0.05878796283174542, 0.9307063219659655, 0.21908671228806847, 0.2948544656051108, 0.18645673568676735, 0.6057563133086832, 0.04457704578948449, -0.2604190849661905, 0.055768148497619977, 1.062019434928688, -0.018442529661367196, 0.01794465092017726, -0.12594310515940535, -0.28042020345989715, -0.3107787145104615, -0.03587156564606559, -0.01602128868554693, -0.1560356487338617, 0.6506016692039692, -0.04095912016869263, -0.03842248406182589, -0.03660762026114739], [0.03276799646216401, 0.12832609057554492, -0.059004218560801756, 0.10902976911506543, -0.09967906946243063, 0.539827484360658, 0.22382574257238746, 0.4224649761749902, 0.3772602523970949, 0.019108792703391712, 0.05236908295427456, 0.37826956223927755, 0.26403605248387757, -0.044855052580953146, 0.5516105015765056, 0.248306480225774, 0.142200673067674, -0.8775995078391846, -0.11758709165106004, 0.17357973443647406, 0.013126482524901607, -0.025235596766124743, 0.13033715548085548, -0.3782886814931601, -0.3801729359794684, -0.3670381518549496, -0.07058376055071539, 0.02706015746211747, -0.02099576763197389, 0.15720522040674056, 0.11849951642929862, 0.1753809767666954], [0.09413027755696278, 1.3908196141032834, -0.15953544921116475, -0.0800233157721265, -0.06640047547075621, 1.3917547946480688, -0.10716836045022814, 1.26077385534789, 1.511014621870116, -0.038819388752925364, -0.0021179530182541097, 1.0467362138694098, 1.1118065330576135, 0.047759693035679306, 1.1891699652065646, 1.2232627788151964, -0.11711642069809364, 1.9502019663229297, 0.05781164430294233, 1.0590813944966695, -0.04735069134009473, -0.032455191437138146, -0.0848719378398895, 0.7348414289743278, 2.433462701927959, 2.380868438514799, -0.14878411015247767, -0.003681425391922799, 1.517279733951756, -0.14142868738470854, 0.009390691242552665, 0.5974033653032929]], "b2": [[0.05426747986149064, 0.4067972900467773, -0.043473611888515076, -0.05404766870390338, 0.00025000608577452474, 0.3587294360547972, -0.22191008663346534, 0.3745647276773448, 0.37867939180800675, -0.06979652821374571, -9.256383222750044e-05, 0.743343259118654, 0.18302760551739636, -0.2296764702573675, 0.3491873643892564, 0.4336025095790685, 0.0, -1.6425485502178334, -0.03628572404515777, 0.6835246486496499, 0.0, 0.0, 0.0711805570166795, -0.7582338718059881, -0.9112583423359469, -0.8092000758849129, -3.904785834216536e-06, 0.005319869252893826, 0.5532605180242325, 0.0, -0.07299357597566217, 0.09740570044037997]], "w3": [[0.057119979669157765, 0.26586305131255794], [-0.09572871068797119, 0.11391944938172502], [0.31286096197642216, -0.11782982827085259], [0.5446401910729002, 0.047555847793003966], [0.054437918929787985, 0.06412788688071853], [-0.21590862292812596, 0.2522491098995891], [0.2879914771691981, 0.08884328991482787], [-0.2914422837755236, 0.4112383032383988], [-0.21155742965337848, -0.05939060706283298], [0.1539785510682562, -0.27584743880420415], [0.20278610966968044, 0.08939301543046513], [-0.38724414031488597, -1.2871537310403893], [-0.046748563377201936, 0.009633528413669287], [0.3367068913927918, -0.13195976309151897], [-0.2960695928442597, 0.2845643704922535], [-0.13280420822395245, -0.3776135433970954], [0.045162854338077624, 0.06430811465199598], [1.963615664657735, 0.0032509813380593488], [0.0517066418162016, -0.012240879328653946], [-0.30720069603963973, -1.0975184836673106], [-0.055687294590549, 0.05057024310860945], [0.22528176584454265, -0.12978268788493463], [0.24674862669214445, 0.1543681818362319], [0.9455141794124191, -0.019915576417397565], [2.82563845032788, 0.9927969292399856], [3.197824471788665, 0.9505986683328501], [-0.048217273064477754, -0.0661082524818635], [0.0617122284224772, -0.007938839308051827], [-0.20183587992004512, -0.7931350186401311], [0.0737779305419126, 0.02084672758803174], [0.20966915312456075, -0.10662431591879654], [-0.33077004271748395, 0.05624444359386881]], "b3": [[-1.6349508672326485, 0.3028149800271506]], "epsilon": 0.0996820918179746, "step_count": 57225, "episode_rewards": [948.2832180438736, -565.6020002313168, 1002.0, 1002.0, 1002.0, 1002.0, 1002.0, 1002.0, 1002.0, 1002.0, 1002.0, 1002.0, 1002.0, 1002.0, 1002.0, 1002.0, 1002.0, 1002.0, 1002.0, 1002.0, 1002.0, 1002.0, 1002.0, 1002.0, 1002.0, 1002.0, 1002.0, 1002.0, 1002.0, 1002.0, 1002.0, 1002.0, 1002.0, 1002.0, 1002.0, 1002.0, 1002.0, 1002.0, 1002.0, 1002.0, 1002.0, 956.8466169739729, -8.200851492993147, -411.33123402130735, -103.39844332937747, 1002.0, 861.3200407435802, 124.68567067718885, 928.6797262153232, -61.58332458381972, 1002.0, 559.3443748074129, 692.5888666144626, 1002.0, -193.28679204294681, 774.4269829185623, -436.20002296752915, -318.970023595944, 185.67871259551166, 102.91826223936158, 514.9128932686582, -220.0552911174814, 114.72397779685517, 295.9921360143111, 307.13894217147424, 772.0818710267238, -150.8207072828385, -99.61841849078928, 793.2323595443771, 95.95222796352316, -142.7307493739475, 754.4666666666667, 1002.0, 408.6279041631821, -333.42747219746786, 803.888372020706, -263.5608316339068, 326.1080220607986, 50.52397808623777, 935.8033528251716, -299.61856735793907, 454.71365382803094, 958.4950541168973, 914.5984469785797, 277.8620216174129, 433.0470883101938, 459.3337013559181, 503.3928472312725, 219.7279493412336, 611.9649214643314, -303.9523360610226, -304.5929675890607, 271.13662921716235, 174.9706050694985, 788.0022217213913, -224.08044601673188, 30.998887337451645, 297.90339736006024, 231.5768134551993, 357.7371030548599, 306.8151354451892, 393.39052006338886, 485.4434976142526, -317.79067326275157, -459.05646032247336, -215.13904347316583, 524.2044444910794, 22.948072395613032, 54.398533034903735, 207.74214559277877, 408.14153161486274, -39.711888310004845, -351.56075271535565, 328.5040965213723]}